<?xml version="1.0"?>
<MethodSetup Method="BDT::BDTG">
  <GeneralInfo>
    <Info name="TMVA Release" value="4.2.1 [262657]"/>
    <Info name="ROOT Release" value="6.06/01 [394753]"/>
    <Info name="Creator" value="kelmorab"/>
    <Info name="Date" value="Fri Oct  7 00:41:12 2016"/>
    <Info name="Host" value="Linux vocms0315.cern.ch 2.6.32-573.26.1.el6.x86_64 #1 SMP Wed May 4 09:23:05 CEST 2016 x86_64 x86_64 x86_64 GNU/Linux"/>
    <Info name="Dir" value="/nfs/dust/cms/user/kelmorab/80Training/3makeHistosAndCards"/>
    <Info name="Training events" value="22966"/>
    <Info name="TrainingTime" value="1.37695131e+01"/>
    <Info name="AnalysisType" value="Classification"/>
  </GeneralInfo>
  <Options>
    <Option name="V" modified="Yes">False</Option>
    <Option name="VerbosityLevel" modified="No">Default</Option>
    <Option name="VarTransform" modified="No">None</Option>
    <Option name="H" modified="Yes">False</Option>
    <Option name="CreateMVAPdfs" modified="No">False</Option>
    <Option name="IgnoreNegWeightsInTraining" modified="No">False</Option>
    <Option name="NTrees" modified="Yes">700</Option>
    <Option name="MaxDepth" modified="Yes">2</Option>
    <Option name="MinNodeSize" modified="No">5%</Option>
    <Option name="nCuts" modified="Yes">49</Option>
    <Option name="BoostType" modified="Yes">Grad</Option>
    <Option name="AdaBoostR2Loss" modified="No">quadratic</Option>
    <Option name="UseBaggedBoost" modified="Yes">True</Option>
    <Option name="Shrinkage" modified="Yes">1.690000e-02</Option>
    <Option name="AdaBoostBeta" modified="No">5.000000e-01</Option>
    <Option name="UseRandomisedTrees" modified="No">False</Option>
    <Option name="UseNvars" modified="No">3</Option>
    <Option name="UsePoissonNvars" modified="No">True</Option>
    <Option name="BaggedSampleFraction" modified="No">4.870000e-01</Option>
    <Option name="UseYesNoLeaf" modified="No">True</Option>
    <Option name="NegWeightTreatment" modified="Yes">ignorenegweightsintraining</Option>
    <Option name="Css" modified="No">1.000000e+00</Option>
    <Option name="Cts_sb" modified="No">1.000000e+00</Option>
    <Option name="Ctb_ss" modified="No">1.000000e+00</Option>
    <Option name="Cbb" modified="No">1.000000e+00</Option>
    <Option name="NodePurityLimit" modified="No">5.000000e-01</Option>
    <Option name="SeparationType" modified="No">giniindex</Option>
    <Option name="DoBoostMonitor" modified="No">False</Option>
    <Option name="UseFisherCuts" modified="No">False</Option>
    <Option name="MinLinCorrForFisher" modified="No">8.000000e-01</Option>
    <Option name="UseExclusiveVars" modified="No">False</Option>
    <Option name="DoPreselection" modified="No">False</Option>
    <Option name="SigToBkgFraction" modified="No">1.000000e+00</Option>
    <Option name="PruneMethod" modified="No">nopruning</Option>
    <Option name="PruneStrength" modified="No">0.000000e+00</Option>
    <Option name="PruningValFraction" modified="No">5.000000e-01</Option>
    <Option name="nEventsMin" modified="No">0</Option>
    <Option name="UseBaggedGrad" modified="No">False</Option>
    <Option name="GradBaggingFraction" modified="Yes">4.870000e-01</Option>
    <Option name="UseNTrainEvents" modified="No">0</Option>
    <Option name="NNodesMax" modified="No">0</Option>
  </Options>
  <Variables NVar="9">
    <Variable VarIndex="0" Expression="Evt_Deta_JetsAverage" Label="Evt_Deta_JetsAverage" Title="Evt_Deta_JetsAverage" Unit="" Internal="Evt_Deta_JetsAverage" Type="F" Min="8.56003761e-02" Max="2.57112885e+00"/>
    <Variable VarIndex="1" Expression="HT" Label="HT" Title="HT" Unit="" Internal="HT" Type="F" Min="1.76277252e+02" Max="2.62527881e+03"/>
    <Variable VarIndex="2" Expression="avg_btag_disc_btags" Label="avg_btag_disc_btags" Title="avg_btag_disc_btags" Unit="" Internal="avg_btag_disc_btags" Type="F" Min="8.18001986e-01" Max="9.98530805e-01"/>
    <Variable VarIndex="3" Expression="tagged_dijet_mass_closest_to_125" Label="tagged_dijet_mass_closest_to_125" Title="tagged_dijet_mass_closest_to_125" Unit="" Internal="tagged_dijet_mass_closest_to_125" Type="F" Min="-9.90000000e+01" Max="3.40253357e+02"/>
    <Variable VarIndex="4" Expression="M3" Label="M3" Title="M3" Unit="" Internal="M3" Type="F" Min="4.10478973e+01" Max="1.87222644e+03"/>
    <Variable VarIndex="5" Expression="all_sum_pt_with_met" Label="all_sum_pt_with_met" Title="all_sum_pt_with_met" Unit="" Internal="all_sum_pt_with_met" Type="F" Min="2.49469086e+02" Max="2.74046387e+03"/>
    <Variable VarIndex="6" Expression="closest_tagged_dijet_mass" Label="closest_tagged_dijet_mass" Title="closest_tagged_dijet_mass" Unit="" Internal="closest_tagged_dijet_mass" Type="F" Min="1.47032900e+01" Max="4.84333771e+02"/>
    <Variable VarIndex="7" Expression="aplanarity" Label="aplanarity" Title="aplanarity" Unit="" Internal="aplanarity" Type="F" Min="4.37400129e-04" Max="4.30447787e-01"/>
    <Variable VarIndex="8" Expression="avg_dr_tagged_jets" Label="avg_dr_tagged_jets" Title="avg_dr_tagged_jets" Unit="" Internal="avg_dr_tagged_jets" Type="F" Min="7.60916710e-01" Max="3.81497312e+00"/>
  </Variables>
  <Spectators NSpec="0"/>
  <Classes NClass="2">
    <Class Name="Signal" Index="0"/>
    <Class Name="Background" Index="1"/>
  </Classes>
  <Transformations NTransformations="0"/>
  <MVAPdfs/>
  <Weights NTrees="700" AnalysisType="1">
    <BinaryTree type="DecisionTree" boostWeight="1.0000000000000000e+00" itree="0">
      <Node pos="s" depth="0" NCoef="0" IVar="2" Cut="9.3352681398391724e-01" cType="1" res="-3.9602899923920631e-03" rms="4.9998432397842407e-01" purity="4.9603971838951111e-01" nType="0">
        <Node pos="l" depth="1" NCoef="0" IVar="0" Cut="1.3191399574279785e+00" cType="1" res="-1.3733585178852081e-01" rms="4.8076903820037842e-01" purity="3.6266413331031799e-01" nType="0">
          <Node pos="l" depth="2" NCoef="0" IVar="-1" Cut="0.0000000000000000e+00" cType="1" res="-2.1835356019437313e-03" rms="4.9333003163337708e-01" purity="4.1860288381576538e-01" nType="-99"/>
          <Node pos="r" depth="2" NCoef="0" IVar="-1" Cut="0.0000000000000000e+00" cType="1" res="-8.1814145669341087e-03" rms="4.0468391776084900e-01" purity="2.0634900033473969e-01" nType="-99"/>
        </Node>
        <Node pos="r" depth="1" NCoef="0" IVar="8" Cut="2.4042704105377197e+00" cType="1" res="1.1522012948989868e-01" rms="4.8654323816299438e-01" purity="6.1522012948989868e-01" nType="0">
          <Node pos="l" depth="2" NCoef="0" IVar="-1" Cut="0.0000000000000000e+00" cType="1" res="5.2627199329435825e-03" rms="4.6751561760902405e-01" purity="6.7728275060653687e-01" nType="-99"/>
          <Node pos="r" depth="2" NCoef="0" IVar="-1" Cut="0.0000000000000000e+00" cType="1" res="-4.0514576248824596e-03" rms="4.8216062784194946e-01" purity="3.6763265728950500e-01" nType="-99"/>
        </Node>
      </Node>
    </BinaryTree>
    <BinaryTree type="DecisionTree" boostWeight="1.0000000000000000e+00" itree="1">
      <Node pos="s" depth="0" NCoef="0" IVar="2" Cut="9.3715101480484009e-01" cType="1" res="2.6819466147571802e-03" rms="4.9919298291206360e-01" purity="5.0271064043045044e-01" nType="0">
        <Node pos="l" depth="1" NCoef="0" IVar="0" Cut="1.1587555408477783e+00" cType="1" res="-1.2213264405727386e-01" rms="4.8407676815986633e-01" purity="3.7629145383834839e-01" nType="0">
          <Node pos="l" depth="2" NCoef="0" IVar="-1" Cut="0.0000000000000000e+00" cType="1" res="-7.2679744334891438e-04" rms="4.9914649128913879e-01" purity="4.7185176610946655e-01" nType="-99"/>
          <Node pos="r" depth="2" NCoef="0" IVar="-1" Cut="0.0000000000000000e+00" cType="1" res="-7.9637216404080391e-03" rms="4.1214188933372498e-01" purity="2.1728685498237610e-01" nType="-99"/>
        </Node>
        <Node pos="r" depth="1" NCoef="0" IVar="0" Cut="1.1415190696716309e+00" cType="1" res="1.3266894221305847e-01" rms="4.8119854927062988e-01" purity="6.3436871767044067e-01" nType="0">
          <Node pos="l" depth="2" NCoef="0" IVar="-1" Cut="0.0000000000000000e+00" cType="1" res="6.5149846486747265e-03" rms="4.4957688450813293e-01" purity="7.1870362758636475e-01" nType="-99"/>
          <Node pos="r" depth="2" NCoef="0" IVar="-1" Cut="0.0000000000000000e+00" cType="1" res="-1.1450457386672497e-03" rms="4.9826779961585999e-01" purity="4.6235707402229309e-01" nType="-99"/>
        </Node>
      </Node>
    </BinaryTree>
    <BinaryTree type="DecisionTree" boostWeight="1.0000000000000000e+00" itree="2">
      <Node pos="s" depth="0" NCoef="0" IVar="2" Cut="9.3701070547103882e-01" cType="1" res="1.5962771140038967e-03" rms="4.9824190139770508e-01" purity="5.0174081325531006e-01" nType="0">
        <Node pos="l" depth="1" NCoef="0" IVar="0" Cut="1.2798682451248169e+00" cType="1" res="-1.3925889134407043e-01" rms="4.7851166129112244e-01" purity="3.5740071535110474e-01" nType="0">
          <Node pos="l" depth="2" NCoef="0" IVar="-1" Cut="0.0000000000000000e+00" cType="1" res="-1.9755284301936626e-03" rms="4.9415177106857300e-01" purity="4.2484080791473389e-01" nType="-99"/>
          <Node pos="r" depth="2" NCoef="0" IVar="-1" Cut="0.0000000000000000e+00" cType="1" res="-8.6672529578208923e-03" rms="3.8861736655235291e-01" purity="1.8550726771354675e-01" nType="-99"/>
        </Node>
        <Node pos="r" depth="1" NCoef="0" IVar="0" Cut="1.0583783388137817e+00" cType="1" res="1.4681027829647064e-01" rms="4.7599548101425171e-01" purity="6.5054756402969360e-01" nType="0">
          <Node pos="l" depth="2" NCoef="0" IVar="-1" Cut="0.0000000000000000e+00" cType="1" res="6.9393124431371689e-03" rms="4.3868732452392578e-01" purity="7.3984611034393311e-01" nType="-99"/>
          <Node pos="r" depth="2" NCoef="0" IVar="-1" Cut="0.0000000000000000e+00" cType="1" res="4.2624640627764165e-04" rms="4.9926611781120300e-01" purity="5.1457166671752930e-01" nType="-99"/>
        </Node>
      </Node>
    </BinaryTree>
    <BinaryTree type="DecisionTree" boostWeight="1.0000000000000000e+00" itree="3">
      <Node pos="s" depth="0" NCoef="0" IVar="2" Cut="9.3600010871887207e-01" cType="1" res="5.8644367381930351e-03" rms="4.9739509820938110e-01" purity="5.0601190328598022e-01" nType="0">
        <Node pos="l" depth="1" NCoef="0" IVar="0" Cut="1.1587848663330078e+00" cType="1" res="-1.2453783303499222e-01" rms="4.8184722661972046e-01" purity="3.7003442645072937e-01" nType="0">
          <Node pos="l" depth="2" NCoef="0" IVar="-1" Cut="0.0000000000000000e+00" cType="1" res="-1.2157480232417583e-03" rms="4.9771004915237427e-01" purity="4.5261543989181519e-01" nType="-99"/>
          <Node pos="r" depth="2" NCoef="0" IVar="-1" Cut="0.0000000000000000e+00" cType="1" res="-6.9186841137707233e-03" rms="4.2780673503875732e-01" purity="2.4171282351016998e-01" nType="-99"/>
        </Node>
        <Node pos="r" depth="1" NCoef="0" IVar="0" Cut="1.2427294254302979e+00" cType="1" res="1.3513031601905823e-01" rms="4.7846433520317078e-01" purity="6.4080446958541870e-01" nType="0">
          <Node pos="l" depth="2" NCoef="0" IVar="-1" Cut="0.0000000000000000e+00" cType="1" res="6.1859926208853722e-03" rms="4.5140638947486877e-01" purity="7.1425467729568481e-01" nType="-99"/>
          <Node pos="r" depth="2" NCoef="0" IVar="-1" Cut="0.0000000000000000e+00" cType="1" res="-2.2463614586740732e-03" rms="4.9429160356521606e-01" purity="4.2628785967826843e-01" nType="-99"/>
        </Node>
      </Node>
    </BinaryTree>
    <BinaryTree type="DecisionTree" boostWeight="1.0000000000000000e+00" itree="4">
      <Node pos="s" depth="0" NCoef="0" IVar="2" Cut="9.3338102102279663e-01" cType="1" res="8.9371977373957634e-03" rms="4.9652752280235291e-01" purity="5.0924539566040039e-01" nType="0">
        <Node pos="l" depth="1" NCoef="0" IVar="0" Cut="9.8765009641647339e-01" cType="1" res="-1.2821526825428009e-01" rms="4.8001477122306824e-01" purity="3.6440759897232056e-01" nType="0">
          <Node pos="l" depth="2" NCoef="0" IVar="-1" Cut="0.0000000000000000e+00" cType="1" res="-5.2517105359584093e-04" rms="4.9947586655616760e-01" purity="4.7711256146430969e-01" nType="-99"/>
          <Node pos="r" depth="2" NCoef="0" IVar="-1" Cut="0.0000000000000000e+00" cType="1" res="-6.2604714184999466e-03" rms="4.4012591242790222e-01" purity="2.6414290070533752e-01" nType="-99"/>
        </Node>
        <Node pos="r" depth="1" NCoef="0" IVar="0" Cut="1.4434578418731689e+00" cType="1" res="1.3215088844299316e-01" rms="4.7848245501518250e-01" purity="6.3936328887939453e-01" nType="0">
          <Node pos="l" depth="2" NCoef="0" IVar="-1" Cut="0.0000000000000000e+00" cType="1" res="5.2290451712906361e-03" rms="4.6410793066024780e-01" purity="6.8389719724655151e-01" nType="-99"/>
          <Node pos="r" depth="2" NCoef="0" IVar="-1" Cut="0.0000000000000000e+00" cType="1" res="-4.2904955334961414e-03" rms="4.7874677181243896e-01" purity="3.5757991671562195e-01" nType="-99"/>
        </Node>
      </Node>
    </BinaryTree>
    <BinaryTree type="DecisionTree" boostWeight="1.0000000000000000e+00" itree="5">
      <Node pos="s" depth="0" NCoef="0" IVar="2" Cut="9.3697953224182129e-01" cType="1" res="-1.5606482047587633e-03" rms="4.9599853157997131e-01" purity="4.9878460168838501e-01" nType="0">
        <Node pos="l" depth="1" NCoef="0" IVar="0" Cut="1.0931962728500366e+00" cType="1" res="-1.1557396501302719e-01" rms="4.8272255063056946e-01" purity="3.7584608793258667e-01" nType="0">
          <Node pos="l" depth="2" NCoef="0" IVar="-1" Cut="0.0000000000000000e+00" cType="1" res="-7.0455466629937291e-04" rms="4.9896469712257385e-01" purity="4.7049835324287415e-01" nType="-99"/>
          <Node pos="r" depth="2" NCoef="0" IVar="-1" Cut="0.0000000000000000e+00" cType="1" res="-6.2785306945443153e-03" rms="4.3755427002906799e-01" purity="2.5921243429183960e-01" nType="-99"/>
        </Node>
        <Node pos="r" depth="1" NCoef="0" IVar="8" Cut="2.3741052150726318e+00" cType="1" res="1.1659190803766251e-01" rms="4.8171436786651611e-01" purity="6.2618637084960938e-01" nType="0">
          <Node pos="l" depth="2" NCoef="0" IVar="-1" Cut="0.0000000000000000e+00" cType="1" res="5.5152676068246365e-03" rms="4.5896419882774353e-01" purity="6.9707542657852173e-01" nType="-99"/>
          <Node pos="r" depth="2" NCoef="0" IVar="-1" Cut="0.0000000000000000e+00" cType="1" res="-3.0955926049500704e-03" rms="4.8866906762123108e-01" purity="3.9893382787704468e-01" nType="-99"/>
        </Node>
      </Node>
    </BinaryTree>
    <BinaryTree type="DecisionTree" boostWeight="1.0000000000000000e+00" itree="6">
      <Node pos="s" depth="0" NCoef="0" IVar="2" Cut="9.3537539243698120e-01" cType="1" res="6.7165470682084560e-03" rms="4.9487733840942383e-01" purity="5.0740998983383179e-01" nType="0">
        <Node pos="l" depth="1" NCoef="0" IVar="0" Cut="1.0164813995361328e+00" cType="1" res="-1.2080401927232742e-01" rms="4.8045223951339722e-01" purity="3.6872726678848267e-01" nType="0">
          <Node pos="l" depth="2" NCoef="0" IVar="-1" Cut="0.0000000000000000e+00" cType="1" res="-2.4578883312642574e-04" rms="4.9977907538414001e-01" purity="4.8735263943672180e-01" nType="-99"/>
          <Node pos="r" depth="2" NCoef="0" IVar="-1" Cut="0.0000000000000000e+00" cType="1" res="-6.2758936546742916e-03" rms="4.3728581070899963e-01" purity="2.5927835702896118e-01" nType="-99"/>
        </Node>
        <Node pos="r" depth="1" NCoef="0" IVar="8" Cut="2.3741052150726318e+00" cType="1" res="1.2762893736362457e-01" rms="4.7770822048187256e-01" purity="6.3890612125396729e-01" nType="0">
          <Node pos="l" depth="2" NCoef="0" IVar="-1" Cut="0.0000000000000000e+00" cType="1" res="5.7177972048521042e-03" rms="4.5466643571853638e-01" purity="7.0669579505920410e-01" nType="-99"/>
          <Node pos="r" depth="2" NCoef="0" IVar="-1" Cut="0.0000000000000000e+00" cType="1" res="-2.7946543414145708e-03" rms="4.9001988768577576e-01" purity="4.0626654028892517e-01" nType="-99"/>
        </Node>
      </Node>
    </BinaryTree>
    <BinaryTree type="DecisionTree" boostWeight="1.0000000000000000e+00" itree="7">
      <Node pos="s" depth="0" NCoef="0" IVar="2" Cut="9.3326967954635620e-01" cType="1" res="-2.3266596253961325e-03" rms="4.9439355731010437e-01" purity="4.9816057085990906e-01" nType="0">
        <Node pos="l" depth="1" NCoef="0" IVar="0" Cut="1.1370983123779297e+00" cType="1" res="-1.2597142159938812e-01" rms="4.7827577590942383e-01" purity="3.6158284544944763e-01" nType="0">
          <Node pos="l" depth="2" NCoef="0" IVar="-1" Cut="0.0000000000000000e+00" cType="1" res="-1.0027412790805101e-03" rms="4.9806675314903259e-01" purity="4.5740810036659241e-01" nType="-99"/>
          <Node pos="r" depth="2" NCoef="0" IVar="-1" Cut="0.0000000000000000e+00" cType="1" res="-7.0459712296724319e-03" rms="4.1758510470390320e-01" purity="2.2540721297264099e-01" nType="-99"/>
        </Node>
        <Node pos="r" depth="1" NCoef="0" IVar="0" Cut="1.0222426652908325e+00" cType="1" res="1.0913340002298355e-01" rms="4.8202961683273315e-01" purity="6.2127900123596191e-01" nType="0">
          <Node pos="l" depth="2" NCoef="0" IVar="-1" Cut="0.0000000000000000e+00" cType="1" res="5.9864581562578678e-03" rms="4.4777786731719971e-01" purity="7.2187423706054688e-01" nType="-99"/>
          <Node pos="r" depth="2" NCoef="0" IVar="-1" Cut="0.0000000000000000e+00" cType="1" res="-4.6298539382405579e-04" rms="4.9756389856338501e-01" purity="4.8775342106819153e-01" nType="-99"/>
        </Node>
      </Node>
    </BinaryTree>
    <BinaryTree type="DecisionTree" boostWeight="1.0000000000000000e+00" itree="8">
      <Node pos="s" depth="0" NCoef="0" IVar="2" Cut="9.4437217712402344e-01" cType="1" res="-2.1033503580838442e-03" rms="4.9376901984214783e-01" purity="4.9859276413917542e-01" nType="0">
        <Node pos="l" depth="1" NCoef="0" IVar="0" Cut="1.1437028646469116e+00" cType="1" res="-9.8268657922744751e-02" rms="4.8481220006942749e-01" purity="3.9267712831497192e-01" nType="0">
          <Node pos="l" depth="2" NCoef="0" IVar="-1" Cut="0.0000000000000000e+00" cType="1" res="-5.4509332403540611e-04" rms="4.9833318591117859e-01" purity="4.7950500249862671e-01" nType="-99"/>
          <Node pos="r" depth="2" NCoef="0" IVar="-1" Cut="0.0000000000000000e+00" cType="1" res="-6.2443809583783150e-03" rms="4.3577334284782410e-01" purity="2.5751000642776489e-01" nType="-99"/>
        </Node>
        <Node pos="r" depth="1" NCoef="0" IVar="0" Cut="1.0690486431121826e+00" cType="1" res="1.4229226112365723e-01" rms="4.7141581773757935e-01" purity="6.5762895345687866e-01" nType="0">
          <Node pos="l" depth="2" NCoef="0" IVar="-1" Cut="0.0000000000000000e+00" cType="1" res="6.8919383920729160e-03" rms="4.3354296684265137e-01" purity="7.4899673461914062e-01" nType="-99"/>
          <Node pos="r" depth="2" NCoef="0" IVar="-1" Cut="0.0000000000000000e+00" cType="1" res="1.6819480515550822e-04" rms="4.9806094169616699e-01" purity="5.0835806131362915e-01" nType="-99"/>
        </Node>
      </Node>
    </BinaryTree>
    <BinaryTree type="DecisionTree" boostWeight="1.0000000000000000e+00" itree="9">
      <Node pos="s" depth="0" NCoef="0" IVar="2" Cut="9.2142343521118164e-01" cType="1" res="4.2596566490828991e-03" rms="4.9298956990242004e-01" purity="5.0485622882843018e-01" nType="0">
        <Node pos="l" depth="1" NCoef="0" IVar="0" Cut="1.2871549129486084e+00" cType="1" res="-1.5916296839714050e-01" rms="4.6568077802658081e-01" purity="3.2500815391540527e-01" nType="0">
          <Node pos="l" depth="2" NCoef="0" IVar="-1" Cut="0.0000000000000000e+00" cType="1" res="-2.5749281048774719e-03" rms="4.8792642354965210e-01" purity="3.9376533031463623e-01" nType="-99"/>
          <Node pos="r" depth="2" NCoef="0" IVar="-1" Cut="0.0000000000000000e+00" cType="1" res="-8.4894681349396706e-03" rms="3.7182247638702393e-01" purity="1.6574569046497345e-01" nType="-99"/>
        </Node>
        <Node pos="r" depth="1" NCoef="0" IVar="8" Cut="2.5179750919342041e+00" cType="1" res="8.7293155491352081e-02" rms="4.8567113280296326e-01" purity="5.9623527526855469e-01" nType="0">
          <Node pos="l" depth="2" NCoef="0" IVar="-1" Cut="0.0000000000000000e+00" cType="1" res="3.8977384101599455e-03" rms="4.7564747929573059e-01" purity="6.4433795213699341e-01" nType="-99"/>
          <Node pos="r" depth="2" NCoef="0" IVar="-1" Cut="0.0000000000000000e+00" cType="1" res="-6.2796343117952347e-03" rms="4.4773602485656738e-01" purity="2.8045111894607544e-01" nType="-99"/>
        </Node>
      </Node>
    </BinaryTree>
    <BinaryTree type="DecisionTree" boostWeight="1.0000000000000000e+00" itree="10">
      <Node pos="s" depth="0" NCoef="0" IVar="2" Cut="9.3525689840316772e-01" cType="1" res="-2.2917580790817738e-03" rms="4.9217131733894348e-01" purity="4.9873152375221252e-01" nType="0">
        <Node pos="l" depth="1" NCoef="0" IVar="0" Cut="1.1587555408477783e+00" cType="1" res="-1.2066846340894699e-01" rms="4.7748288512229919e-01" purity="3.6338004469871521e-01" nType="0">
          <Node pos="l" depth="2" NCoef="0" IVar="-1" Cut="0.0000000000000000e+00" cType="1" res="-1.0266678873449564e-03" rms="4.9756887555122375e-01" purity="4.5576915144920349e-01" nType="-99"/>
          <Node pos="r" depth="2" NCoef="0" IVar="-1" Cut="0.0000000000000000e+00" cType="1" res="-7.0525784976780415e-03" rms="4.0892484784126282e-01" purity="2.1340757608413696e-01" nType="-99"/>
        </Node>
        <Node pos="r" depth="1" NCoef="0" IVar="8" Cut="2.4839992523193359e+00" cType="1" res="1.1174722015857697e-01" rms="4.7900831699371338e-01" purity="6.2912321090698242e-01" nType="0">
          <Node pos="l" depth="2" NCoef="0" IVar="-1" Cut="0.0000000000000000e+00" cType="1" res="4.7284723259508610e-03" rms="4.6507698297500610e-01" purity="6.7997974157333374e-01" nType="-99"/>
          <Node pos="r" depth="2" NCoef="0" IVar="-1" Cut="0.0000000000000000e+00" cType="1" res="-4.7980071976780891e-03" rms="4.7176340222358704e-01" purity="3.3718535304069519e-01" nType="-99"/>
        </Node>
      </Node>
    </BinaryTree>
    <BinaryTree type="DecisionTree" boostWeight="1.0000000000000000e+00" itree="11">
      <Node pos="s" depth="0" NCoef="0" IVar="2" Cut="9.4924420118331909e-01" cType="1" res="9.4125326722860336e-04" rms="4.9127209186553955e-01" purity="5.0234591960906982e-01" nType="0">
        <Node pos="l" depth="1" NCoef="0" IVar="0" Cut="1.0613504648208618e+00" cType="1" res="-8.6420595645904541e-02" rms="4.8497688770294189e-01" purity="4.0475687384605408e-01" nType="0">
          <Node pos="l" depth="2" NCoef="0" IVar="-1" Cut="0.0000000000000000e+00" cType="1" res="2.1382760314736515e-04" rms="4.9727743864059448e-01" purity="5.1169598102569580e-01" nType="-99"/>
          <Node pos="r" depth="2" NCoef="0" IVar="-1" Cut="0.0000000000000000e+00" cType="1" res="-5.6392527185380459e-03" rms="4.4492855668067932e-01" purity="2.7831375598907471e-01" nType="-99"/>
        </Node>
        <Node pos="r" depth="1" NCoef="0" IVar="0" Cut="1.3253986835479736e+00" cType="1" res="1.7101065814495087e-01" rms="4.5774564146995544e-01" purity="6.9232475757598877e-01" nType="0">
          <Node pos="l" depth="2" NCoef="0" IVar="-1" Cut="0.0000000000000000e+00" cType="1" res="6.6657676361501217e-03" rms="4.3500572443008423e-01" purity="7.4483883380889893e-01" nType="-99"/>
          <Node pos="r" depth="2" NCoef="0" IVar="-1" Cut="0.0000000000000000e+00" cType="1" res="-1.4572847867384553e-03" rms="4.9574646353721619e-01" purity="4.4842872023582458e-01" nType="-99"/>
        </Node>
      </Node>
    </BinaryTree>
    <BinaryTree type="DecisionTree" boostWeight="1.0000000000000000e+00" itree="12">
      <Node pos="s" depth="0" NCoef="0" IVar="2" Cut="9.3715101480484009e-01" cType="1" res="3.3132670796476305e-04" rms="4.9071365594863892e-01" purity="5.0120484828948975e-01" nType="0">
        <Node pos="l" depth="1" NCoef="0" IVar="0" Cut="1.1587555408477783e+00" cType="1" res="-1.0820309817790985e-01" rms="4.7951135039329529e-01" purity="3.7381416559219360e-01" nType="0">
          <Node pos="l" depth="2" NCoef="0" IVar="-1" Cut="0.0000000000000000e+00" cType="1" res="-7.5359881157055497e-04" rms="4.9833896756172180e-01" purity="4.6626600623130798e-01" nType="-99"/>
          <Node pos="r" depth="2" NCoef="0" IVar="-1" Cut="0.0000000000000000e+00" cType="1" res="-6.7449710331857204e-03" rms="4.1472980380058289e-01" purity="2.2258183360099792e-01" nType="-99"/>
        </Node>
        <Node pos="r" depth="1" NCoef="0" IVar="8" Cut="2.3980734348297119e+00" cType="1" res="1.1753519624471664e-01" rms="4.7547811269760132e-01" purity="6.3877111673355103e-01" nType="0">
          <Node pos="l" depth="2" NCoef="0" IVar="-1" Cut="0.0000000000000000e+00" cType="1" res="5.0864838995039463e-03" rms="4.5814543962478638e-01" purity="6.9720470905303955e-01" nType="-99"/>
          <Node pos="r" depth="2" NCoef="0" IVar="-1" Cut="0.0000000000000000e+00" cType="1" res="-2.9562877025455236e-03" rms="4.8688369989395142e-01" purity="3.9758116006851196e-01" nType="-99"/>
        </Node>
      </Node>
    </BinaryTree>
    <BinaryTree type="DecisionTree" boostWeight="1.0000000000000000e+00" itree="13">
      <Node pos="s" depth="0" NCoef="0" IVar="0" Cut="1.0792113542556763e+00" cType="1" res="-1.0792579501867294e-02" rms="4.9002495408058167e-01" purity="4.8952743411064148e-01" nType="0">
        <Node pos="l" depth="1" NCoef="0" IVar="2" Cut="9.2264735698699951e-01" cType="1" res="8.4503136575222015e-02" rms="4.8473310470581055e-01" purity="5.9981828927993774e-01" nType="0">
          <Node pos="l" depth="2" NCoef="0" IVar="-1" Cut="0.0000000000000000e+00" cType="1" res="-2.1990526001900434e-03" rms="4.9187001585960388e-01" purity="4.1084402799606323e-01" nType="-99"/>
          <Node pos="r" depth="2" NCoef="0" IVar="-1" Cut="0.0000000000000000e+00" cType="1" res="4.8447418957948685e-03" rms="4.6052408218383789e-01" purity="6.9014948606491089e-01" nType="-99"/>
        </Node>
        <Node pos="r" depth="1" NCoef="0" IVar="2" Cut="9.4567680358886719e-01" cType="1" res="-1.3701432943344116e-01" rms="4.6797052025794983e-01" purity="3.4344413876533508e-01" nType="0">
          <Node pos="l" depth="2" NCoef="0" IVar="-1" Cut="0.0000000000000000e+00" cType="1" res="-5.8957743458449841e-03" rms="4.3575200438499451e-01" purity="2.6016727089881897e-01" nType="-99"/>
          <Node pos="r" depth="2" NCoef="0" IVar="-1" Cut="0.0000000000000000e+00" cType="1" res="1.0278839909005910e-05" rms="4.9690473079681396e-01" purity="5.0504928827285767e-01" nType="-99"/>
        </Node>
      </Node>
    </BinaryTree>
    <BinaryTree type="DecisionTree" boostWeight="1.0000000000000000e+00" itree="14">
      <Node pos="s" depth="0" NCoef="0" IVar="2" Cut="9.3962228298187256e-01" cType="1" res="-5.1128873601555824e-03" rms="4.8924711346626282e-01" purity="4.9589505791664124e-01" nType="0">
        <Node pos="l" depth="1" NCoef="0" IVar="0" Cut="1.3048893213272095e+00" cType="1" res="-1.1079834401607513e-01" rms="4.7734352946281433e-01" purity="3.6991888284683228e-01" nType="0">
          <Node pos="l" depth="2" NCoef="0" IVar="-1" Cut="0.0000000000000000e+00" cType="1" res="-1.3661091215908527e-03" rms="4.9410608410835266e-01" purity="4.4035521149635315e-01" nType="-99"/>
          <Node pos="r" depth="2" NCoef="0" IVar="-1" Cut="0.0000000000000000e+00" cType="1" res="-7.8764883801341057e-03" rms="3.8549634814262390e-01" purity="1.8270526826381683e-01" nType="-99"/>
        </Node>
        <Node pos="r" depth="1" NCoef="0" IVar="0" Cut="1.4978091716766357e+00" cType="1" res="1.1871159076690674e-01" rms="4.7373461723327637e-01" purity="6.4349269866943359e-01" nType="0">
          <Node pos="l" depth="2" NCoef="0" IVar="-1" Cut="0.0000000000000000e+00" cType="1" res="4.6718069352209568e-03" rms="4.6226620674133301e-01" purity="6.8456560373306274e-01" nType="-99"/>
          <Node pos="r" depth="2" NCoef="0" IVar="-1" Cut="0.0000000000000000e+00" cType="1" res="-5.3057973273098469e-03" rms="4.6334221959114075e-01" purity="3.1813272833824158e-01" nType="-99"/>
        </Node>
      </Node>
    </BinaryTree>
    <BinaryTree type="DecisionTree" boostWeight="1.0000000000000000e+00" itree="15">
      <Node pos="s" depth="0" NCoef="0" IVar="0" Cut="1.0715396404266357e+00" cType="1" res="-2.0766386296600103e-03" rms="4.8897302150726318e-01" purity="4.9857053160667419e-01" nType="0">
        <Node pos="l" depth="1" NCoef="0" IVar="2" Cut="9.2577010393142700e-01" cType="1" res="8.8975518941879272e-02" rms="4.8287931084632874e-01" purity="6.0635751485824585e-01" nType="0">
          <Node pos="l" depth="2" NCoef="0" IVar="-1" Cut="0.0000000000000000e+00" cType="1" res="-1.2176393065601587e-03" rms="4.9669179320335388e-01" purity="4.4535610079765320e-01" nType="-99"/>
          <Node pos="r" depth="2" NCoef="0" IVar="-1" Cut="0.0000000000000000e+00" cType="1" res="4.8781121149659157e-03" rms="4.5808142423629761e-01" purity="6.9579917192459106e-01" nType="-99"/>
        </Node>
        <Node pos="r" depth="1" NCoef="0" IVar="2" Cut="9.4420117139816284e-01" cType="1" res="-1.2674836814403534e-01" rms="4.6937066316604614e-01" purity="3.5098496079444885e-01" nType="0">
          <Node pos="l" depth="2" NCoef="0" IVar="-1" Cut="0.0000000000000000e+00" cType="1" res="-5.6934547610580921e-03" rms="4.3724080920219421e-01" purity="2.6273694634437561e-01" nType="-99"/>
          <Node pos="r" depth="2" NCoef="0" IVar="-1" Cut="0.0000000000000000e+00" cType="1" res="2.8459576424211264e-04" rms="4.9576613306999207e-01" purity="5.1447051763534546e-01" nType="-99"/>
        </Node>
      </Node>
    </BinaryTree>
    <BinaryTree type="DecisionTree" boostWeight="1.0000000000000000e+00" itree="16">
      <Node pos="s" depth="0" NCoef="0" IVar="0" Cut="1.0970678329467773e+00" cType="1" res="1.7144677694886923e-03" rms="4.8828044533729553e-01" purity="5.0211673974990845e-01" nType="0">
        <Node pos="l" depth="1" NCoef="0" IVar="2" Cut="9.2892968654632568e-01" cType="1" res="9.1298691928386688e-02" rms="4.8184895515441895e-01" purity="6.0917621850967407e-01" nType="0">
          <Node pos="l" depth="2" NCoef="0" IVar="-1" Cut="0.0000000000000000e+00" cType="1" res="-8.9089205721393228e-04" rms="4.9784082174301147e-01" purity="4.5795610547065735e-01" nType="-99"/>
          <Node pos="r" depth="2" NCoef="0" IVar="-1" Cut="0.0000000000000000e+00" cType="1" res="5.1138759590685368e-03" rms="4.5260053873062134e-01" purity="7.0889854431152344e-01" nType="-99"/>
        </Node>
        <Node pos="r" depth="1" NCoef="0" IVar="2" Cut="9.4758707284927368e-01" cType="1" res="-1.2917923927307129e-01" rms="4.6762713789939880e-01" purity="3.4568944573402405e-01" nType="0">
          <Node pos="l" depth="2" NCoef="0" IVar="-1" Cut="0.0000000000000000e+00" cType="1" res="-5.4122903384268284e-03" rms="4.4110313057899475e-01" purity="2.7159830927848816e-01" nType="-99"/>
          <Node pos="r" depth="2" NCoef="0" IVar="-1" Cut="0.0000000000000000e+00" cType="1" res="2.9842153890058398e-04" rms="4.9602156877517700e-01" purity="5.1511353254318237e-01" nType="-99"/>
        </Node>
      </Node>
    </BinaryTree>
    <BinaryTree type="DecisionTree" boostWeight="1.0000000000000000e+00" itree="17">
      <Node pos="s" depth="0" NCoef="0" IVar="2" Cut="9.2150712013244629e-01" cType="1" res="-9.2319101095199585e-03" rms="4.8766553401947021e-01" purity="4.9197810888290405e-01" nType="0">
        <Node pos="l" depth="1" NCoef="0" IVar="0" Cut="1.1552287340164185e+00" cType="1" res="-1.6097952425479889e-01" rms="4.5760548114776611e-01" purity="3.0975583195686340e-01" nType="0">
          <Node pos="l" depth="2" NCoef="0" IVar="-1" Cut="0.0000000000000000e+00" cType="1" res="-2.2697404492646456e-03" rms="4.9013090133666992e-01" purity="4.0204852819442749e-01" nType="-99"/>
          <Node pos="r" depth="2" NCoef="0" IVar="-1" Cut="0.0000000000000000e+00" cType="1" res="-7.6037156395614147e-03" rms="3.7783595919609070e-01" purity="1.7273060977458954e-01" nType="-99"/>
        </Node>
        <Node pos="r" depth="1" NCoef="0" IVar="0" Cut="1.0543755292892456e+00" cType="1" res="6.5584458410739899e-02" rms="4.8464050889015198e-01" purity="5.8181941509246826e-01" nType="0">
          <Node pos="l" depth="2" NCoef="0" IVar="-1" Cut="0.0000000000000000e+00" cType="1" res="4.5392555184662342e-03" rms="4.6163424849510193e-01" purity="6.8756312131881714e-01" nType="-99"/>
          <Node pos="r" depth="2" NCoef="0" IVar="-1" Cut="0.0000000000000000e+00" cType="1" res="-1.7792382277548313e-03" rms="4.8923856019973755e-01" purity="4.3093180656433105e-01" nType="-99"/>
        </Node>
      </Node>
    </BinaryTree>
    <BinaryTree type="DecisionTree" boostWeight="1.0000000000000000e+00" itree="18">
      <Node pos="s" depth="0" NCoef="0" IVar="2" Cut="9.4050508737564087e-01" cType="1" res="6.6333608701825142e-03" rms="4.8640334606170654e-01" purity="5.0776994228363037e-01" nType="0">
        <Node pos="l" depth="1" NCoef="0" IVar="0" Cut="1.0063205957412720e+00" cType="1" res="-9.4669878482818604e-02" rms="4.7845870256423950e-01" purity="3.8268160820007324e-01" nType="0">
          <Node pos="l" depth="2" NCoef="0" IVar="-1" Cut="0.0000000000000000e+00" cType="1" res="1.9599407096393406e-04" rms="4.9757841229438782e-01" purity="5.0635606050491333e-01" nType="-99"/>
          <Node pos="r" depth="2" NCoef="0" IVar="-1" Cut="0.0000000000000000e+00" cType="1" res="-5.4548969492316246e-03" rms="4.3791437149047852e-01" purity="2.6488047838211060e-01" nType="-99"/>
        </Node>
        <Node pos="r" depth="1" NCoef="0" IVar="0" Cut="1.0715396404266357e+00" cType="1" res="1.3107459247112274e-01" rms="4.6681109070777893e-01" purity="6.6142886877059937e-01" nType="0">
          <Node pos="l" depth="2" NCoef="0" IVar="-1" Cut="0.0000000000000000e+00" cType="1" res="6.2427800148725510e-03" rms="4.3199649453163147e-01" purity="7.5118464231491089e-01" nType="-99"/>
          <Node pos="r" depth="2" NCoef="0" IVar="-1" Cut="0.0000000000000000e+00" cType="1" res="5.5053533287718892e-04" rms="4.9527105689048767e-01" purity="5.2247124910354614e-01" nType="-99"/>
        </Node>
      </Node>
    </BinaryTree>
    <BinaryTree type="DecisionTree" boostWeight="1.0000000000000000e+00" itree="19">
      <Node pos="s" depth="0" NCoef="0" IVar="2" Cut="9.4591009616851807e-01" cType="1" res="6.9260853342711926e-04" rms="4.8609122633934021e-01" purity="5.0159180164337158e-01" nType="0">
        <Node pos="l" depth="1" NCoef="0" IVar="0" Cut="9.7188609838485718e-01" cType="1" res="-8.0130621790885925e-02" rms="4.8109564185142517e-01" purity="4.0084806084632874e-01" nType="0">
          <Node pos="l" depth="2" NCoef="0" IVar="-1" Cut="0.0000000000000000e+00" cType="1" res="6.1887828633189201e-04" rms="4.9551880359649658e-01" purity="5.2795636653900146e-01" nType="-99"/>
          <Node pos="r" depth="2" NCoef="0" IVar="-1" Cut="0.0000000000000000e+00" cType="1" res="-4.7103343531489372e-03" rms="4.5099741220474243e-01" purity="2.9476511478424072e-01" nType="-99"/>
        </Node>
        <Node pos="r" depth="1" NCoef="0" IVar="0" Cut="1.0222295522689819e+00" cType="1" res="1.3636456429958344e-01" rms="4.6370565891265869e-01" purity="6.7070281505584717e-01" nType="0">
          <Node pos="l" depth="2" NCoef="0" IVar="-1" Cut="0.0000000000000000e+00" cType="1" res="6.6798143088817596e-03" rms="4.2219510674476624e-01" purity="7.6777267456054688e-01" nType="-99"/>
          <Node pos="r" depth="2" NCoef="0" IVar="-1" Cut="0.0000000000000000e+00" cType="1" res="7.0028676418587565e-04" rms="4.9520149827003479e-01" purity="5.3267163038253784e-01" nType="-99"/>
        </Node>
      </Node>
    </BinaryTree>
    <BinaryTree type="DecisionTree" boostWeight="1.0000000000000000e+00" itree="20">
      <Node pos="s" depth="0" NCoef="0" IVar="2" Cut="9.3438601493835449e-01" cType="1" res="-6.7753847688436508e-03" rms="4.8566004633903503e-01" purity="4.9473127722740173e-01" nType="0">
        <Node pos="l" depth="1" NCoef="0" IVar="0" Cut="1.0126478672027588e+00" cType="1" res="-1.1854773014783859e-01" rms="4.7151416540145874e-01" purity="3.5183480381965637e-01" nType="0">
          <Node pos="l" depth="2" NCoef="0" IVar="-1" Cut="0.0000000000000000e+00" cType="1" res="-9.5377420075237751e-04" rms="4.9743634462356567e-01" purity="4.5825040340423584e-01" nType="-99"/>
          <Node pos="r" depth="2" NCoef="0" IVar="-1" Cut="0.0000000000000000e+00" cType="1" res="-5.6501678191125393e-03" rms="4.2923817038536072e-01" purity="2.4714629352092743e-01" nType="-99"/>
        </Node>
        <Node pos="r" depth="1" NCoef="0" IVar="8" Cut="2.4303748607635498e+00" cType="1" res="9.8400086164474487e-02" rms="4.7517263889312744e-01" purity="6.2919390201568604e-01" nType="0">
          <Node pos="l" depth="2" NCoef="0" IVar="-1" Cut="0.0000000000000000e+00" cType="1" res="4.2876638472080231e-03" rms="4.6209350228309631e-01" purity="6.8305045366287231e-01" nType="-99"/>
          <Node pos="r" depth="2" NCoef="0" IVar="-1" Cut="0.0000000000000000e+00" cType="1" res="-3.6157795693725348e-03" rms="4.7956171631813049e-01" purity="3.7041726708412170e-01" nType="-99"/>
        </Node>
      </Node>
    </BinaryTree>
    <BinaryTree type="DecisionTree" boostWeight="1.0000000000000000e+00" itree="21">
      <Node pos="s" depth="0" NCoef="0" IVar="2" Cut="9.3184697628021240e-01" cType="1" res="1.7221494344994426e-03" rms="4.8549854755401611e-01" purity="5.0269639492034912e-01" nType="0">
        <Node pos="l" depth="1" NCoef="0" IVar="0" Cut="1.1688054800033569e+00" cType="1" res="-1.1001322418451309e-01" rms="4.7305953502655029e-01" purity="3.5746124386787415e-01" nType="0">
          <Node pos="l" depth="2" NCoef="0" IVar="-1" Cut="0.0000000000000000e+00" cType="1" res="-1.1378795607015491e-03" rms="4.9584895372390747e-01" purity="4.4470629096031189e-01" nType="-99"/>
          <Node pos="r" depth="2" NCoef="0" IVar="-1" Cut="0.0000000000000000e+00" cType="1" res="-6.3244858756661415e-03" rms="4.1021966934204102e-01" purity="2.1517018973827362e-01" nType="-99"/>
        </Node>
        <Node pos="r" depth="1" NCoef="0" IVar="8" Cut="2.5141413211822510e+00" cType="1" res="9.6926383674144745e-02" rms="4.7556993365287781e-01" purity="6.2644410133361816e-01" nType="0">
          <Node pos="l" depth="2" NCoef="0" IVar="-1" Cut="0.0000000000000000e+00" cType="1" res="4.0383557789027691e-03" rms="4.6564635634422302e-01" purity="6.7213225364685059e-01" nType="-99"/>
          <Node pos="r" depth="2" NCoef="0" IVar="-1" Cut="0.0000000000000000e+00" cType="1" res="-4.6238992363214493e-03" rms="4.6677681803703308e-01" purity="3.2728099822998047e-01" nType="-99"/>
        </Node>
      </Node>
    </BinaryTree>
    <BinaryTree type="DecisionTree" boostWeight="1.0000000000000000e+00" itree="22">
      <Node pos="s" depth="0" NCoef="0" IVar="0" Cut="1.0301011800765991e+00" cType="1" res="-3.8326992653310299e-03" rms="4.8527407646179199e-01" purity="4.9719268083572388e-01" nType="0">
        <Node pos="l" depth="1" NCoef="0" IVar="2" Cut="9.1907930374145508e-01" cType="1" res="8.4881357848644257e-02" rms="4.7937619686126709e-01" purity="6.1172956228256226e-01" nType="0">
          <Node pos="l" depth="2" NCoef="0" IVar="-1" Cut="0.0000000000000000e+00" cType="1" res="-2.0874186884611845e-03" rms="4.9160188436508179e-01" purity="4.0873229503631592e-01" nType="-99"/>
          <Node pos="r" depth="2" NCoef="0" IVar="-1" Cut="0.0000000000000000e+00" cType="1" res="4.4860821217298508e-03" rms="4.5788189768791199e-01" purity="6.9394171237945557e-01" nType="-99"/>
        </Node>
        <Node pos="r" depth="1" NCoef="0" IVar="2" Cut="9.4787514209747314e-01" cType="1" res="-1.0627461224794388e-01" rms="4.7167611122131348e-01" purity="3.6493206024169922e-01" nType="0">
          <Node pos="l" depth="2" NCoef="0" IVar="-1" Cut="0.0000000000000000e+00" cType="1" res="-4.5846099965274334e-03" rms="4.5084255933761597e-01" purity="2.9227516055107117e-01" nType="-99"/>
          <Node pos="r" depth="2" NCoef="0" IVar="-1" Cut="0.0000000000000000e+00" cType="1" res="3.0011206399649382e-04" rms="4.9422487616539001e-01" purity="5.2169758081436157e-01" nType="-99"/>
        </Node>
      </Node>
    </BinaryTree>
    <BinaryTree type="DecisionTree" boostWeight="1.0000000000000000e+00" itree="23">
      <Node pos="s" depth="0" NCoef="0" IVar="2" Cut="9.2979800701141357e-01" cType="1" res="-4.7834184952080250e-03" rms="4.8395538330078125e-01" purity="4.9648261070251465e-01" nType="0">
        <Node pos="l" depth="1" NCoef="0" IVar="0" Cut="1.4556287527084351e+00" cType="1" res="-1.2903934717178345e-01" rms="4.6605616807937622e-01" purity="3.3481371402740479e-01" nType="0">
          <Node pos="l" depth="2" NCoef="0" IVar="-1" Cut="0.0000000000000000e+00" cType="1" res="-2.5393362157046795e-03" rms="4.8182061314582825e-01" purity="3.7846839427947998e-01" nType="-99"/>
          <Node pos="r" depth="2" NCoef="0" IVar="-1" Cut="0.0000000000000000e+00" cType="1" res="-8.2784797996282578e-03" rms="3.4545305371284485e-01" purity="1.3873428106307983e-01" nType="-99"/>
        </Node>
        <Node pos="r" depth="1" NCoef="0" IVar="0" Cut="1.0820089578628540e+00" cType="1" res="8.7964110076427460e-02" rms="4.7621300816535950e-01" purity="6.1715614795684814e-01" nType="0">
          <Node pos="l" depth="2" NCoef="0" IVar="-1" Cut="0.0000000000000000e+00" cType="1" res="4.7235414385795593e-03" rms="4.5187461376190186e-01" purity="7.0917642116546631e-01" nType="-99"/>
          <Node pos="r" depth="2" NCoef="0" IVar="-1" Cut="0.0000000000000000e+00" cType="1" res="-7.8416097676381469e-04" rms="4.9275767803192139e-01" purity="4.6659663319587708e-01" nType="-99"/>
        </Node>
      </Node>
    </BinaryTree>
    <BinaryTree type="DecisionTree" boostWeight="1.0000000000000000e+00" itree="24">
      <Node pos="s" depth="0" NCoef="0" IVar="2" Cut="9.2262202501296997e-01" cType="1" res="-9.6347072394564748e-04" rms="4.8329678177833557e-01" purity="4.9968427419662476e-01" nType="0">
        <Node pos="l" depth="1" NCoef="0" IVar="0" Cut="1.1587555408477783e+00" cType="1" res="-1.4115685224533081e-01" rms="4.5912343263626099e-01" purity="3.1820276379585266e-01" nType="0">
          <Node pos="l" depth="2" NCoef="0" IVar="-1" Cut="0.0000000000000000e+00" cType="1" res="-1.8405038863420486e-03" rms="4.9163591861724854e-01" purity="4.1228291392326355e-01" nType="-99"/>
          <Node pos="r" depth="2" NCoef="0" IVar="-1" Cut="0.0000000000000000e+00" cType="1" res="-6.9114095531404018e-03" rms="3.8368606567382812e-01" purity="1.8049013614654541e-01" nType="-99"/>
        </Node>
        <Node pos="r" depth="1" NCoef="0" IVar="8" Cut="2.5189914703369141e+00" cType="1" res="7.3579147458076477e-02" rms="4.7925150394439697e-01" purity="5.9618026018142700e-01" nType="0">
          <Node pos="l" depth="2" NCoef="0" IVar="-1" Cut="0.0000000000000000e+00" cType="1" res="3.2812452409416437e-03" rms="4.7220978140830994e-01" purity="6.4214771986007690e-01" nType="-99"/>
          <Node pos="r" depth="2" NCoef="0" IVar="-1" Cut="0.0000000000000000e+00" cType="1" res="-4.5304228551685810e-03" rms="4.6187570691108704e-01" purity="3.1516781449317932e-01" nType="-99"/>
        </Node>
      </Node>
    </BinaryTree>
    <BinaryTree type="DecisionTree" boostWeight="1.0000000000000000e+00" itree="25">
      <Node pos="s" depth="0" NCoef="0" IVar="0" Cut="1.0543755292892456e+00" cType="1" res="-1.9358952995389700e-03" rms="4.8270389437675476e-01" purity="4.9975967407226562e-01" nType="0">
        <Node pos="l" depth="1" NCoef="0" IVar="2" Cut="9.2561537027359009e-01" cType="1" res="8.5075326263904572e-02" rms="4.7789356112480164e-01" purity="6.1480468511581421e-01" nType="0">
          <Node pos="l" depth="2" NCoef="0" IVar="-1" Cut="0.0000000000000000e+00" cType="1" res="-1.2571699917316437e-03" rms="4.9578648805618286e-01" purity="4.3812865018844604e-01" nType="-99"/>
          <Node pos="r" depth="2" NCoef="0" IVar="-1" Cut="0.0000000000000000e+00" cType="1" res="4.5176264829933643e-03" rms="4.5378899574279785e-01" purity="7.0453441143035889e-01" nType="-99"/>
        </Node>
        <Node pos="r" depth="1" NCoef="0" IVar="2" Cut="9.4591009616851807e-01" cType="1" res="-1.1766838282346725e-01" rms="4.6441909670829773e-01" purity="3.4673979878425598e-01" nType="0">
          <Node pos="l" depth="2" NCoef="0" IVar="-1" Cut="0.0000000000000000e+00" cType="1" res="-5.1708682440221310e-03" rms="4.3604001402854919e-01" purity="2.6442906260490417e-01" nType="-99"/>
          <Node pos="r" depth="2" NCoef="0" IVar="-1" Cut="0.0000000000000000e+00" cType="1" res="1.1120975250378251e-04" rms="4.9497675895690918e-01" purity="5.1206666231155396e-01" nType="-99"/>
        </Node>
      </Node>
    </BinaryTree>
    <BinaryTree type="DecisionTree" boostWeight="1.0000000000000000e+00" itree="26">
      <Node pos="s" depth="0" NCoef="0" IVar="2" Cut="9.4422334432601929e-01" cType="1" res="6.0534328222274780e-03" rms="4.8191741108894348e-01" purity="5.0769150257110596e-01" nType="0">
        <Node pos="l" depth="1" NCoef="0" IVar="0" Cut="1.0834500789642334e+00" cType="1" res="-7.3940224945545197e-02" rms="4.7849756479263306e-01" purity="3.9923250675201416e-01" nType="0">
          <Node pos="l" depth="2" NCoef="0" IVar="-1" Cut="0.0000000000000000e+00" cType="1" res="1.8127945077139884e-04" rms="4.9588501453399658e-01" purity="5.0872999429702759e-01" nType="-99"/>
          <Node pos="r" depth="2" NCoef="0" IVar="-1" Cut="0.0000000000000000e+00" cType="1" res="-5.0566326826810837e-03" rms="4.3495741486549377e-01" purity="2.6153993606567383e-01" nType="-99"/>
        </Node>
        <Node pos="r" depth="1" NCoef="0" IVar="0" Cut="1.0709973573684692e+00" cType="1" res="1.2512171268463135e-01" rms="4.6198621392250061e-01" purity="6.6912961006164551e-01" nType="0">
          <Node pos="l" depth="2" NCoef="0" IVar="-1" Cut="0.0000000000000000e+00" cType="1" res="5.9613753110170364e-03" rms="4.2683586478233337e-01" purity="7.5998556613922119e-01" nType="-99"/>
          <Node pos="r" depth="2" NCoef="0" IVar="-1" Cut="0.0000000000000000e+00" cType="1" res="2.5113223819062114e-04" rms="4.9458417296409607e-01" purity="5.1520115137100220e-01" nType="-99"/>
        </Node>
      </Node>
    </BinaryTree>
    <BinaryTree type="DecisionTree" boostWeight="1.0000000000000000e+00" itree="27">
      <Node pos="s" depth="0" NCoef="0" IVar="2" Cut="9.4787514209747314e-01" cType="1" res="-1.0591514874249697e-03" rms="4.8251548409461975e-01" purity="5.0024437904357910e-01" nType="0">
        <Node pos="l" depth="1" NCoef="0" IVar="0" Cut="9.4381618499755859e-01" cType="1" res="-7.5413204729557037e-02" rms="4.7901925444602966e-01" purity="4.0072304010391235e-01" nType="0">
          <Node pos="l" depth="2" NCoef="0" IVar="-1" Cut="0.0000000000000000e+00" cType="1" res="5.3042080253362656e-04" rms="4.9549528956413269e-01" purity="5.2923732995986938e-01" nType="-99"/>
          <Node pos="r" depth="2" NCoef="0" IVar="-1" Cut="0.0000000000000000e+00" cType="1" res="-4.2397552169859409e-03" rms="4.5288202166557312e-01" purity="3.0267834663391113e-01" nType="-99"/>
        </Node>
        <Node pos="r" depth="1" NCoef="0" IVar="8" Cut="2.4766263961791992e+00" cType="1" res="1.3180422782897949e-01" rms="4.5967018604278564e-01" purity="6.7807930707931519e-01" nType="0">
          <Node pos="l" depth="2" NCoef="0" IVar="-1" Cut="0.0000000000000000e+00" cType="1" res="5.1539447158575058e-03" rms="4.4538611173629761e-01" purity="7.2306454181671143e-01" nType="-99"/>
          <Node pos="r" depth="2" NCoef="0" IVar="-1" Cut="0.0000000000000000e+00" cType="1" res="-2.5389613583683968e-03" rms="4.8767980933189392e-01" purity="4.0590849518775940e-01" nType="-99"/>
        </Node>
      </Node>
    </BinaryTree>
    <BinaryTree type="DecisionTree" boostWeight="1.0000000000000000e+00" itree="28">
      <Node pos="s" depth="0" NCoef="0" IVar="0" Cut="9.9135208129882812e-01" cType="1" res="1.4846981503069401e-03" rms="4.8062518239021301e-01" purity="5.0264036655426025e-01" nType="0">
        <Node pos="l" depth="1" NCoef="0" IVar="2" Cut="9.2088186740875244e-01" cType="1" res="9.8418295383453369e-02" rms="4.7237780690193176e-01" purity="6.3199067115783691e-01" nType="0">
          <Node pos="l" depth="2" NCoef="0" IVar="-1" Cut="0.0000000000000000e+00" cType="1" res="-1.3406894868239760e-03" rms="4.9553284049034119e-01" purity="4.3418464064598083e-01" nType="-99"/>
          <Node pos="r" depth="2" NCoef="0" IVar="-1" Cut="0.0000000000000000e+00" cType="1" res="4.8712794668972492e-03" rms="4.4665014743804932e-01" purity="7.1791571378707886e-01" nType="-99"/>
        </Node>
        <Node pos="r" depth="1" NCoef="0" IVar="2" Cut="9.4241195917129517e-01" cType="1" res="-9.9216327071189880e-02" rms="4.6825611591339111e-01" purity="3.6826270818710327e-01" nType="0">
          <Node pos="l" depth="2" NCoef="0" IVar="-1" Cut="0.0000000000000000e+00" cType="1" res="-4.9273208715021610e-03" rms="4.3757626414299011e-01" purity="2.6644179224967957e-01" nType="-99"/>
          <Node pos="r" depth="2" NCoef="0" IVar="-1" Cut="0.0000000000000000e+00" cType="1" res="5.5433507077395916e-04" rms="4.9177470803260803e-01" purity="5.3300517797470093e-01" nType="-99"/>
        </Node>
      </Node>
    </BinaryTree>
    <BinaryTree type="DecisionTree" boostWeight="1.0000000000000000e+00" itree="29">
      <Node pos="s" depth="0" NCoef="0" IVar="0" Cut="1.1783926486968994e+00" cType="1" res="-8.0578103661537170e-03" rms="4.8187145590782166e-01" purity="4.9359783530235291e-01" nType="0">
        <Node pos="l" depth="1" NCoef="0" IVar="2" Cut="9.2092669010162354e-01" cType="1" res="5.3564887493848801e-02" rms="4.8270604014396667e-01" purity="5.8030843734741211e-01" nType="0">
          <Node pos="l" depth="2" NCoef="0" IVar="-1" Cut="0.0000000000000000e+00" cType="1" res="-2.0190817303955555e-03" rms="4.8909068107604980e-01" purity="4.0087491273880005e-01" nType="-99"/>
          <Node pos="r" depth="2" NCoef="0" IVar="-1" Cut="0.0000000000000000e+00" cType="1" res="3.3319809008389711e-03" rms="4.6818220615386963e-01" purity="6.6112482547760010e-01" nType="-99"/>
        </Node>
        <Node pos="r" depth="1" NCoef="0" IVar="2" Cut="9.5576149225234985e-01" cType="1" res="-1.3280116021633148e-01" rms="4.5532688498497009e-01" purity="3.1806886196136475e-01" nType="0">
          <Node pos="l" depth="2" NCoef="0" IVar="-1" Cut="0.0000000000000000e+00" cType="1" res="-5.0520212389528751e-03" rms="4.3507716059684753e-01" purity="2.6339873671531677e-01" nType="-99"/>
          <Node pos="r" depth="2" NCoef="0" IVar="-1" Cut="0.0000000000000000e+00" cType="1" res="4.5270062400959432e-04" rms="4.9558883905410767e-01" purity="5.1771098375320435e-01" nType="-99"/>
        </Node>
      </Node>
    </BinaryTree>
    <BinaryTree type="DecisionTree" boostWeight="1.0000000000000000e+00" itree="30">
      <Node pos="s" depth="0" NCoef="0" IVar="2" Cut="9.2268109321594238e-01" cType="1" res="1.2765591964125633e-03" rms="4.8034352064132690e-01" purity="5.0165218114852905e-01" nType="0">
        <Node pos="l" depth="1" NCoef="0" IVar="0" Cut="1.2178283929824829e+00" cType="1" res="-1.3169333338737488e-01" rms="4.5827397704124451e-01" purity="3.1922245025634766e-01" nType="0">
          <Node pos="l" depth="2" NCoef="0" IVar="-1" Cut="0.0000000000000000e+00" cType="1" res="-1.7938931705430150e-03" rms="4.8980331420898438e-01" purity="4.0692842006683350e-01" nType="-99"/>
          <Node pos="r" depth="2" NCoef="0" IVar="-1" Cut="0.0000000000000000e+00" cType="1" res="-6.9586872123181820e-03" rms="3.6729133129119873e-01" purity="1.6103632748126984e-01" nType="-99"/>
        </Node>
        <Node pos="r" depth="1" NCoef="0" IVar="8" Cut="2.4590206146240234e+00" cType="1" res="7.4440218508243561e-02" rms="4.7649377584457397e-01" purity="6.0203003883361816e-01" nType="0">
          <Node pos="l" depth="2" NCoef="0" IVar="-1" Cut="0.0000000000000000e+00" cType="1" res="3.4300675615668297e-03" rms="4.6809601783752441e-01" purity="6.5627640485763550e-01" nType="-99"/>
          <Node pos="r" depth="2" NCoef="0" IVar="-1" Cut="0.0000000000000000e+00" cType="1" res="-3.5646017640829086e-03" rms="4.6996161341667175e-01" purity="3.4356865286827087e-01" nType="-99"/>
        </Node>
      </Node>
    </BinaryTree>
    <BinaryTree type="DecisionTree" boostWeight="1.0000000000000000e+00" itree="31">
      <Node pos="s" depth="0" NCoef="0" IVar="2" Cut="9.1909813880920410e-01" cType="1" res="6.8293471122160554e-04" rms="4.8004624247550964e-01" purity="5.0269997119903564e-01" nType="0">
        <Node pos="l" depth="1" NCoef="0" IVar="0" Cut="9.4232028722763062e-01" cType="1" res="-1.4708125591278076e-01" rms="4.5159518718719482e-01" purity="3.0160319805145264e-01" nType="0">
          <Node pos="l" depth="2" NCoef="0" IVar="-1" Cut="0.0000000000000000e+00" cType="1" res="-1.3724758755415678e-03" rms="4.9517172574996948e-01" purity="4.3070083856582642e-01" nType="-99"/>
          <Node pos="r" depth="2" NCoef="0" IVar="-1" Cut="0.0000000000000000e+00" cType="1" res="-5.9665706939995289e-03" rms="4.0695247054100037e-01" purity="2.1393586695194244e-01" nType="-99"/>
        </Node>
        <Node pos="r" depth="1" NCoef="0" IVar="8" Cut="2.5186712741851807e+00" cType="1" res="6.5534576773643494e-02" rms="4.7779607772827148e-01" purity="5.9095853567123413e-01" nType="0">
          <Node pos="l" depth="2" NCoef="0" IVar="-1" Cut="0.0000000000000000e+00" cType="1" res="2.9175607487559319e-03" rms="4.7239589691162109e-01" purity="6.3627570867538452e-01" nType="-99"/>
          <Node pos="r" depth="2" NCoef="0" IVar="-1" Cut="0.0000000000000000e+00" cType="1" res="-4.5537697151303291e-03" rms="4.5698168873786926e-01" purity="3.0442202091217041e-01" nType="-99"/>
        </Node>
      </Node>
    </BinaryTree>
    <BinaryTree type="DecisionTree" boostWeight="1.0000000000000000e+00" itree="32">
      <Node pos="s" depth="0" NCoef="0" IVar="2" Cut="9.5525854825973511e-01" cType="1" res="-4.0198834612965584e-03" rms="4.8080208897590637e-01" purity="4.9701490998268127e-01" nType="0">
        <Node pos="l" depth="1" NCoef="0" IVar="0" Cut="1.3939721584320068e+00" cType="1" res="-5.6811004877090454e-02" rms="4.8019427061080933e-01" purity="4.2570808529853821e-01" nType="0">
          <Node pos="l" depth="2" NCoef="0" IVar="-1" Cut="0.0000000000000000e+00" cType="1" res="-5.5626546964049339e-04" rms="4.8980441689491272e-01" purity="4.7793677449226379e-01" nType="-99"/>
          <Node pos="r" depth="2" NCoef="0" IVar="-1" Cut="0.0000000000000000e+00" cType="1" res="-5.9054875746369362e-03" rms="4.1160771250724792e-01" purity="2.2504611313343048e-01" nType="-99"/>
        </Node>
        <Node pos="r" depth="1" NCoef="0" IVar="0" Cut="1.0881576538085938e+00" cType="1" res="1.4444756507873535e-01" rms="4.5048087835311890e-01" purity="6.9755506515502930e-01" nType="0">
          <Node pos="l" depth="2" NCoef="0" IVar="-1" Cut="0.0000000000000000e+00" cType="1" res="6.5533220767974854e-03" rms="4.1227111220359802e-01" purity="7.8272002935409546e-01" nType="-99"/>
          <Node pos="r" depth="2" NCoef="0" IVar="-1" Cut="0.0000000000000000e+00" cType="1" res="1.2715930351987481e-03" rms="4.9237495660781860e-01" purity="5.5161088705062866e-01" nType="-99"/>
        </Node>
      </Node>
    </BinaryTree>
    <BinaryTree type="DecisionTree" boostWeight="1.0000000000000000e+00" itree="33">
      <Node pos="s" depth="0" NCoef="0" IVar="2" Cut="9.1909813880920410e-01" cType="1" res="3.8363416679203510e-03" rms="4.8010063171386719e-01" purity="5.0517708063125610e-01" nType="0">
        <Node pos="l" depth="1" NCoef="0" IVar="0" Cut="1.3942840099334717e+00" cType="1" res="-1.2965801358222961e-01" rms="4.5846387743949890e-01" purity="3.1671351194381714e-01" nType="0">
          <Node pos="l" depth="2" NCoef="0" IVar="-1" Cut="0.0000000000000000e+00" cType="1" res="-2.4970853701233864e-03" rms="4.7993269562721252e-01" purity="3.6838853359222412e-01" nType="-99"/>
          <Node pos="r" depth="2" NCoef="0" IVar="-1" Cut="0.0000000000000000e+00" cType="1" res="-7.6629752293229103e-03" rms="3.4325760602951050e-01" purity="1.3648384809494019e-01" nType="-99"/>
        </Node>
        <Node pos="r" depth="1" NCoef="0" IVar="0" Cut="1.3616105318069458e+00" cType="1" res="6.3067115843296051e-02" rms="4.7758945822715759e-01" purity="5.8879745006561279e-01" nType="0">
          <Node pos="l" depth="2" NCoef="0" IVar="-1" Cut="0.0000000000000000e+00" cType="1" res="3.1111182179301977e-03" rms="4.7019529342651367e-01" purity="6.4532983303070068e-01" nType="-99"/>
          <Node pos="r" depth="2" NCoef="0" IVar="-1" Cut="0.0000000000000000e+00" cType="1" res="-3.3200397156178951e-03" rms="4.7015136480331421e-01" purity="3.5404542088508606e-01" nType="-99"/>
        </Node>
      </Node>
    </BinaryTree>
    <BinaryTree type="DecisionTree" boostWeight="1.0000000000000000e+00" itree="34">
      <Node pos="s" depth="0" NCoef="0" IVar="2" Cut="9.1897904872894287e-01" cType="1" res="-7.1169608272612095e-03" rms="4.7920748591423035e-01" purity="4.9380463361740112e-01" nType="0">
        <Node pos="l" depth="1" NCoef="0" IVar="5" Cut="4.3823001098632812e+02" cType="1" res="-1.4076846837997437e-01" rms="4.5370450615882874e-01" purity="3.0400413274765015e-01" nType="0">
          <Node pos="l" depth="2" NCoef="0" IVar="-1" Cut="0.0000000000000000e+00" cType="1" res="-6.5067335963249207e-03" rms="3.9578557014465332e-01" purity="2.0144408941268921e-01" nType="-99"/>
          <Node pos="r" depth="2" NCoef="0" IVar="-1" Cut="0.0000000000000000e+00" cType="1" res="-2.7501296717673540e-03" rms="4.6961787343025208e-01" purity="3.4583592414855957e-01" nType="-99"/>
        </Node>
        <Node pos="r" depth="1" NCoef="0" IVar="0" Cut="9.9114310741424561e-01" cType="1" res="5.4550915956497192e-02" rms="4.7809278964996338e-01" purity="5.8138006925582886e-01" nType="0">
          <Node pos="l" depth="2" NCoef="0" IVar="-1" Cut="0.0000000000000000e+00" cType="1" res="3.9538992568850517e-03" rms="4.5620244741439819e-01" purity="6.9590556621551514e-01" nType="-99"/>
          <Node pos="r" depth="2" NCoef="0" IVar="-1" Cut="0.0000000000000000e+00" cType="1" res="-9.8476663697510958e-04" rms="4.8669299483299255e-01" purity="4.5427507162094116e-01" nType="-99"/>
        </Node>
      </Node>
    </BinaryTree>
    <BinaryTree type="DecisionTree" boostWeight="1.0000000000000000e+00" itree="35">
      <Node pos="s" depth="0" NCoef="0" IVar="0" Cut="1.1448425054550171e+00" cType="1" res="5.8820024132728577e-03" rms="4.7790476679801941e-01" purity="5.0670826435089111e-01" nType="0">
        <Node pos="l" depth="1" NCoef="0" IVar="2" Cut="9.2978256940841675e-01" cType="1" res="7.5846299529075623e-02" rms="4.7566592693328857e-01" purity="6.0874992609024048e-01" nType="0">
          <Node pos="l" depth="2" NCoef="0" IVar="-1" Cut="0.0000000000000000e+00" cType="1" res="-7.9041859135031700e-04" rms="4.9605759978294373e-01" purity="4.5016127824783325e-01" nType="-99"/>
          <Node pos="r" depth="2" NCoef="0" IVar="-1" Cut="0.0000000000000000e+00" cType="1" res="4.4261617586016655e-03" rms="4.4810223579406738e-01" purity="7.1415090560913086e-01" nType="-99"/>
        </Node>
        <Node pos="r" depth="1" NCoef="0" IVar="2" Cut="9.1792535781860352e-01" cType="1" res="-1.1329192668199539e-01" rms="4.5769980549812317e-01" purity="3.3289518952369690e-01" nType="0">
          <Node pos="l" depth="2" NCoef="0" IVar="-1" Cut="0.0000000000000000e+00" cType="1" res="-6.3435751944780350e-03" rms="3.8037875294685364e-01" purity="1.7665281891822815e-01" nType="-99"/>
          <Node pos="r" depth="2" NCoef="0" IVar="-1" Cut="0.0000000000000000e+00" cType="1" res="-1.7210528021678329e-03" rms="4.8305189609527588e-01" purity="4.1324135661125183e-01" nType="-99"/>
        </Node>
      </Node>
    </BinaryTree>
    <BinaryTree type="DecisionTree" boostWeight="1.0000000000000000e+00" itree="36">
      <Node pos="s" depth="0" NCoef="0" IVar="2" Cut="9.3715101480484009e-01" cType="1" res="-8.5661864432040602e-05" rms="4.7691932320594788e-01" purity="5.0200819969177246e-01" nType="0">
        <Node pos="l" depth="1" NCoef="0" IVar="0" Cut="7.6491159200668335e-01" cType="1" res="-9.8280020058155060e-02" rms="4.6818199753761292e-01" purity="3.5788762569427490e-01" nType="0">
          <Node pos="l" depth="2" NCoef="0" IVar="-1" Cut="0.0000000000000000e+00" cType="1" res="7.8418437624350190e-04" rms="4.9728044867515564e-01" purity="5.2692437171936035e-01" nType="-99"/>
          <Node pos="r" depth="2" NCoef="0" IVar="-1" Cut="0.0000000000000000e+00" cType="1" res="-4.0589608252048492e-03" rms="4.4881892204284668e-01" purity="2.9812109470367432e-01" nType="-99"/>
        </Node>
        <Node pos="r" depth="1" NCoef="0" IVar="0" Cut="9.9753010272979736e-01" cType="1" res="1.0153566300868988e-01" rms="4.6442693471908569e-01" purity="6.5115863084793091e-01" nType="0">
          <Node pos="l" depth="2" NCoef="0" IVar="-1" Cut="0.0000000000000000e+00" cType="1" res="5.4642255418002605e-03" rms="4.2425107955932617e-01" purity="7.6388448476791382e-01" nType="-99"/>
          <Node pos="r" depth="2" NCoef="0" IVar="-1" Cut="0.0000000000000000e+00" cType="1" res="2.4975882843136787e-04" rms="4.9193471670150757e-01" purity="5.1739138364791870e-01" nType="-99"/>
        </Node>
      </Node>
    </BinaryTree>
    <BinaryTree type="DecisionTree" boostWeight="1.0000000000000000e+00" itree="37">
      <Node pos="s" depth="0" NCoef="0" IVar="2" Cut="9.4650161266326904e-01" cType="1" res="5.9189437888562679e-04" rms="4.7803089022636414e-01" purity="5.0273984670639038e-01" nType="0">
        <Node pos="l" depth="1" NCoef="0" IVar="0" Cut="1.0671466588973999e+00" cType="1" res="-6.2094040215015411e-02" rms="4.7720840573310852e-01" purity="4.0729650855064392e-01" nType="0">
          <Node pos="l" depth="2" NCoef="0" IVar="-1" Cut="0.0000000000000000e+00" cType="1" res="1.8375738000031561e-04" rms="4.9457418918609619e-01" purity="5.1462751626968384e-01" nType="-99"/>
          <Node pos="r" depth="2" NCoef="0" IVar="-1" Cut="0.0000000000000000e+00" cType="1" res="-4.2763650417327881e-03" rms="4.4045865535736084e-01" purity="2.7535048127174377e-01" nType="-99"/>
        </Node>
        <Node pos="r" depth="1" NCoef="0" IVar="8" Cut="2.3751497268676758e+00" cType="1" res="1.1035428941249847e-01" rms="4.5930477976799011e-01" purity="6.6986012458801270e-01" nType="0">
          <Node pos="l" depth="2" NCoef="0" IVar="-1" Cut="0.0000000000000000e+00" cType="1" res="4.8995767720043659e-03" rms="4.3938511610031128e-01" purity="7.3518449068069458e-01" nType="-99"/>
          <Node pos="r" depth="2" NCoef="0" IVar="-1" Cut="0.0000000000000000e+00" cType="1" res="-2.3007364943623543e-03" rms="4.8620206117630005e-01" purity="4.2024374008178711e-01" nType="-99"/>
        </Node>
      </Node>
    </BinaryTree>
    <BinaryTree type="DecisionTree" boostWeight="1.0000000000000000e+00" itree="38">
      <Node pos="s" depth="0" NCoef="0" IVar="2" Cut="9.3340438604354858e-01" cType="1" res="3.2807805109769106e-03" rms="4.7624057531356812e-01" purity="5.0427895784378052e-01" nType="0">
        <Node pos="l" depth="1" NCoef="0" IVar="0" Cut="9.6394538879394531e-01" cType="1" res="-8.8582262396812439e-02" rms="4.6880280971527100e-01" purity="3.5931169986724854e-01" nType="0">
          <Node pos="l" depth="2" NCoef="0" IVar="-1" Cut="0.0000000000000000e+00" cType="1" res="8.0986261309590191e-05" rms="4.9840798974037170e-01" purity="4.9366363883018494e-01" nType="-99"/>
          <Node pos="r" depth="2" NCoef="0" IVar="-1" Cut="0.0000000000000000e+00" cType="1" res="-4.5661199837923050e-03" rms="4.3168345093727112e-01" purity="2.5606021285057068e-01" nType="-99"/>
        </Node>
        <Node pos="r" depth="1" NCoef="0" IVar="0" Cut="1.5734857320785522e+00" cType="1" res="8.5447169840335846e-02" rms="4.6775287389755249e-01" purity="6.3394409418106079e-01" nType="0">
          <Node pos="l" depth="2" NCoef="0" IVar="-1" Cut="0.0000000000000000e+00" cType="1" res="3.5340129397809505e-03" rms="4.6063217520713806e-01" purity="6.7320203781127930e-01" nType="-99"/>
          <Node pos="r" depth="2" NCoef="0" IVar="-1" Cut="0.0000000000000000e+00" cType="1" res="-6.1676586046814919e-03" rms="4.3805810809135437e-01" purity="2.6816445589065552e-01" nType="-99"/>
        </Node>
      </Node>
    </BinaryTree>
    <BinaryTree type="DecisionTree" boostWeight="1.0000000000000000e+00" itree="39">
      <Node pos="s" depth="0" NCoef="0" IVar="2" Cut="9.1909813880920410e-01" cType="1" res="-1.5596505254507065e-03" rms="4.7677558660507202e-01" purity="4.9888277053833008e-01" nType="0">
        <Node pos="l" depth="1" NCoef="0" IVar="0" Cut="9.3753737211227417e-01" cType="1" res="-1.2453632056713104e-01" rms="4.5514318346977234e-01" purity="3.1201499700546265e-01" nType="0">
          <Node pos="l" depth="2" NCoef="0" IVar="-1" Cut="0.0000000000000000e+00" cType="1" res="-1.0255090892314911e-03" rms="4.9601584672927856e-01" purity="4.3874564766883850e-01" nType="-99"/>
          <Node pos="r" depth="2" NCoef="0" IVar="-1" Cut="0.0000000000000000e+00" cType="1" res="-5.1458412781357765e-03" rms="4.1597351431846619e-01" purity="2.2729758918285370e-01" nType="-99"/>
        </Node>
        <Node pos="r" depth="1" NCoef="0" IVar="8" Cut="2.5186712741851807e+00" cType="1" res="5.6033238768577576e-02" rms="4.7576957941055298e-01" purity="5.8639729022979736e-01" nType="0">
          <Node pos="l" depth="2" NCoef="0" IVar="-1" Cut="0.0000000000000000e+00" cType="1" res="2.6043397374451160e-03" rms="4.7171819210052490e-01" purity="6.3136649131774902e-01" nType="-99"/>
          <Node pos="r" depth="2" NCoef="0" IVar="-1" Cut="0.0000000000000000e+00" cType="1" res="-4.3707732111215591e-03" rms="4.5405098795890808e-01" purity="3.0009824037551880e-01" nType="-99"/>
        </Node>
      </Node>
    </BinaryTree>
    <BinaryTree type="DecisionTree" boostWeight="1.0000000000000000e+00" itree="40">
      <Node pos="s" depth="0" NCoef="0" IVar="0" Cut="9.8132508993148804e-01" cType="1" res="-1.1049230815842748e-03" rms="4.7672182321548462e-01" purity="5.0051558017730713e-01" nType="0">
        <Node pos="l" depth="1" NCoef="0" IVar="2" Cut="9.2641037702560425e-01" cType="1" res="8.0839805305004120e-02" rms="4.7168484330177307e-01" purity="6.2464082241058350e-01" nType="0">
          <Node pos="l" depth="2" NCoef="0" IVar="-1" Cut="0.0000000000000000e+00" cType="1" res="-7.0546177448704839e-04" rms="4.9689742922782898e-01" purity="4.5609897375106812e-01" nType="-99"/>
          <Node pos="r" depth="2" NCoef="0" IVar="-1" Cut="0.0000000000000000e+00" cType="1" res="4.3323938734829426e-03" rms="4.4469738006591797e-01" purity="7.2245401144027710e-01" nType="-99"/>
        </Node>
        <Node pos="r" depth="1" NCoef="0" IVar="2" Cut="9.5509034395217896e-01" cType="1" res="-8.3369441330432892e-02" rms="4.6749421954154968e-01" purity="3.7590590119361877e-01" nType="0">
          <Node pos="l" depth="2" NCoef="0" IVar="-1" Cut="0.0000000000000000e+00" cType="1" res="-3.5660937428474426e-03" rms="4.5432034134864807e-01" purity="3.1552025675773621e-01" nType="-99"/>
          <Node pos="r" depth="2" NCoef="0" IVar="-1" Cut="0.0000000000000000e+00" cType="1" res="1.4723704662173986e-03" rms="4.8649179935455322e-01" purity="5.7556283473968506e-01" nType="-99"/>
        </Node>
      </Node>
    </BinaryTree>
    <BinaryTree type="DecisionTree" boostWeight="1.0000000000000000e+00" itree="41">
      <Node pos="s" depth="0" NCoef="0" IVar="2" Cut="9.1780239343643188e-01" cType="1" res="-3.7214828189462423e-03" rms="4.7672247886657715e-01" purity="4.9835500121116638e-01" nType="0">
        <Node pos="l" depth="1" NCoef="0" IVar="0" Cut="1.1006338596343994e+00" cType="1" res="-1.3052976131439209e-01" rms="4.4976136088371277e-01" purity="3.0389139056205750e-01" nType="0">
          <Node pos="l" depth="2" NCoef="0" IVar="-1" Cut="0.0000000000000000e+00" cType="1" res="-1.5553156845271587e-03" rms="4.9148011207580566e-01" purity="4.1240534186363220e-01" nType="-99"/>
          <Node pos="r" depth="2" NCoef="0" IVar="-1" Cut="0.0000000000000000e+00" cType="1" res="-6.3517261296510696e-03" rms="3.7466275691986084e-01" purity="1.7140093445777893e-01" nType="-99"/>
        </Node>
        <Node pos="r" depth="1" NCoef="0" IVar="0" Cut="1.4774962663650513e+00" cType="1" res="4.9093350768089294e-02" rms="4.7768309712409973e-01" purity="5.7934784889221191e-01" nType="0">
          <Node pos="l" depth="2" NCoef="0" IVar="-1" Cut="0.0000000000000000e+00" cType="1" res="2.3081763647496700e-03" rms="4.7477075457572937e-01" purity="6.2088096141815186e-01" nType="-99"/>
          <Node pos="r" depth="2" NCoef="0" IVar="-1" Cut="0.0000000000000000e+00" cType="1" res="-4.2621116153895855e-03" rms="4.5436617732048035e-01" purity="3.0868941545486450e-01" nType="-99"/>
        </Node>
      </Node>
    </BinaryTree>
    <BinaryTree type="DecisionTree" boostWeight="1.0000000000000000e+00" itree="42">
      <Node pos="s" depth="0" NCoef="0" IVar="2" Cut="9.4504612684249878e-01" cType="1" res="-4.4431244023144245e-03" rms="4.7513747215270996e-01" purity="4.9785131216049194e-01" nType="0">
        <Node pos="l" depth="1" NCoef="0" IVar="8" Cut="2.4590206146240234e+00" cType="1" res="-7.4171200394630432e-02" rms="4.7218951582908630e-01" purity="3.8865107297897339e-01" nType="0">
          <Node pos="l" depth="2" NCoef="0" IVar="-1" Cut="0.0000000000000000e+00" cType="1" res="-9.8318886011838913e-04" rms="4.8642694950103760e-01" purity="4.4423794746398926e-01" nType="-99"/>
          <Node pos="r" depth="2" NCoef="0" IVar="-1" Cut="0.0000000000000000e+00" cType="1" res="-6.7583681084215641e-03" rms="3.7750720977783203e-01" purity="1.7472174763679504e-01" nType="-99"/>
        </Node>
        <Node pos="r" depth="1" NCoef="0" IVar="8" Cut="2.3030569553375244e+00" cType="1" res="1.0410393029451370e-01" rms="4.5907709002494812e-01" purity="6.6784548759460449e-01" nType="0">
          <Node pos="l" depth="2" NCoef="0" IVar="-1" Cut="0.0000000000000000e+00" cType="1" res="4.7361869364976883e-03" rms="4.3722033500671387e-01" purity="7.3795783519744873e-01" nType="-99"/>
          <Node pos="r" depth="2" NCoef="0" IVar="-1" Cut="0.0000000000000000e+00" cType="1" res="-8.5998245049268007e-04" rms="4.8990121483802795e-01" purity="4.7823306918144226e-01" nType="-99"/>
        </Node>
      </Node>
    </BinaryTree>
    <BinaryTree type="DecisionTree" boostWeight="1.0000000000000000e+00" itree="43">
      <Node pos="s" depth="0" NCoef="0" IVar="2" Cut="9.4921118021011353e-01" cType="1" res="-4.0460115997120738e-04" rms="4.7677594423294067e-01" purity="5.0193923711776733e-01" nType="0">
        <Node pos="l" depth="1" NCoef="0" IVar="0" Cut="1.2845364809036255e+00" cType="1" res="-5.4780531674623489e-02" rms="4.7736227512359619e-01" purity="4.1535276174545288e-01" nType="0">
          <Node pos="l" depth="2" NCoef="0" IVar="-1" Cut="0.0000000000000000e+00" cType="1" res="-3.2304663909599185e-04" rms="4.9160382151603699e-01" purity="4.8499643802642822e-01" nType="-99"/>
          <Node pos="r" depth="2" NCoef="0" IVar="-1" Cut="0.0000000000000000e+00" cType="1" res="-4.9825208261609077e-03" rms="4.1800585389137268e-01" purity="2.3450528085231781e-01" nType="-99"/>
        </Node>
        <Node pos="r" depth="1" NCoef="0" IVar="8" Cut="2.4156448841094971e+00" cType="1" res="1.1023077368736267e-01" rms="4.5598351955413818e-01" purity="6.7811137437820435e-01" nType="0">
          <Node pos="l" depth="2" NCoef="0" IVar="-1" Cut="0.0000000000000000e+00" cType="1" res="4.4647562317550182e-03" rms="4.4197508692741394e-01" purity="7.2791486978530884e-01" nType="-99"/>
          <Node pos="r" depth="2" NCoef="0" IVar="-1" Cut="0.0000000000000000e+00" cType="1" res="-1.4185652835294604e-03" rms="4.8958235979080200e-01" purity="4.3858045339584351e-01" nType="-99"/>
        </Node>
      </Node>
    </BinaryTree>
    <BinaryTree type="DecisionTree" boostWeight="1.0000000000000000e+00" itree="44">
      <Node pos="s" depth="0" NCoef="0" IVar="2" Cut="9.4425100088119507e-01" cType="1" res="-3.8316559512168169e-03" rms="4.7568178176879883e-01" purity="4.9789801239967346e-01" nType="0">
        <Node pos="l" depth="1" NCoef="0" IVar="0" Cut="1.1487312316894531e+00" cType="1" res="-6.7625172436237335e-02" rms="4.7359749674797058e-01" purity="3.9254367351531982e-01" nType="0">
          <Node pos="l" depth="2" NCoef="0" IVar="-1" Cut="0.0000000000000000e+00" cType="1" res="-2.6698276633396745e-04" rms="4.9367177486419678e-01" purity="4.8685178160667419e-01" nType="-99"/>
          <Node pos="r" depth="2" NCoef="0" IVar="-1" Cut="0.0000000000000000e+00" cType="1" res="-4.8653688281774521e-03" rms="4.2216092348098755e-01" purity="2.3844665288925171e-01" nType="-99"/>
        </Node>
        <Node pos="r" depth="1" NCoef="0" IVar="0" Cut="8.5354119539260864e-01" cType="1" res="9.4060204923152924e-02" rms="4.6204069256782532e-01" purity="6.5956532955169678e-01" nType="0">
          <Node pos="l" depth="2" NCoef="0" IVar="-1" Cut="0.0000000000000000e+00" cType="1" res="5.7249679230153561e-03" rms="4.1104099154472351e-01" purity="7.8427463769912720e-01" nType="-99"/>
          <Node pos="r" depth="2" NCoef="0" IVar="-1" Cut="0.0000000000000000e+00" cType="1" res="1.0656596859917045e-03" rms="4.8447263240814209e-01" purity="5.7554340362548828e-01" nType="-99"/>
        </Node>
      </Node>
    </BinaryTree>
    <BinaryTree type="DecisionTree" boostWeight="1.0000000000000000e+00" itree="45">
      <Node pos="s" depth="0" NCoef="0" IVar="2" Cut="9.4742214679718018e-01" cType="1" res="-5.6795207783579826e-03" rms="4.7590231895446777e-01" purity="4.9665316939353943e-01" nType="0">
        <Node pos="l" depth="1" NCoef="0" IVar="0" Cut="9.8898941278457642e-01" cType="1" res="-6.3418656587600708e-02" rms="4.7482898831367493e-01" purity="4.0159180760383606e-01" nType="0">
          <Node pos="l" depth="2" NCoef="0" IVar="-1" Cut="0.0000000000000000e+00" cType="1" res="1.0970432049361989e-04" rms="4.9370762705802917e-01" purity="5.1560854911804199e-01" nType="-99"/>
          <Node pos="r" depth="2" NCoef="0" IVar="-1" Cut="0.0000000000000000e+00" cType="1" res="-3.7241687532514334e-03" rms="4.4652283191680908e-01" purity="2.9229998588562012e-01" nType="-99"/>
        </Node>
        <Node pos="r" depth="1" NCoef="0" IVar="0" Cut="1.2836827039718628e+00" cType="1" res="9.8367713391780853e-02" rms="4.5987874269485474e-01" purity="6.6795593500137329e-01" nType="0">
          <Node pos="l" depth="2" NCoef="0" IVar="-1" Cut="0.0000000000000000e+00" cType="1" res="4.2907930910587311e-03" rms="4.4316494464874268e-01" purity="7.2764700651168823e-01" nType="-99"/>
          <Node pos="r" depth="2" NCoef="0" IVar="-1" Cut="0.0000000000000000e+00" cType="1" res="-1.4212245587259531e-03" rms="4.9143633246421814e-01" purity="4.4659286737442017e-01" nType="-99"/>
        </Node>
      </Node>
    </BinaryTree>
    <BinaryTree type="DecisionTree" boostWeight="1.0000000000000000e+00" itree="46">
      <Node pos="s" depth="0" NCoef="0" IVar="0" Cut="1.0066741704940796e+00" cType="1" res="1.7847530543804169e-03" rms="4.7399362921714783e-01" purity="5.0366258621215820e-01" nType="0">
        <Node pos="l" depth="1" NCoef="0" IVar="2" Cut="9.3070197105407715e-01" cType="1" res="8.0378733575344086e-02" rms="4.7025269269943237e-01" purity="6.3126492500305176e-01" nType="0">
          <Node pos="l" depth="2" NCoef="0" IVar="-1" Cut="0.0000000000000000e+00" cType="1" res="-6.0642629250651225e-05" rms="4.9797049164772034e-01" purity="4.8367545008659363e-01" nType="-99"/>
          <Node pos="r" depth="2" NCoef="0" IVar="-1" Cut="0.0000000000000000e+00" cType="1" res="4.1469996795058250e-03" rms="4.4324797391891479e-01" purity="7.2683882713317871e-01" nType="-99"/>
        </Node>
        <Node pos="r" depth="1" NCoef="0" IVar="2" Cut="9.3144750595092773e-01" cType="1" res="-8.1855438649654388e-02" rms="4.6352973580360413e-01" purity="3.6786743998527527e-01" nType="0">
          <Node pos="l" depth="2" NCoef="0" IVar="-1" Cut="0.0000000000000000e+00" cType="1" res="-4.5308955013751984e-03" rms="4.2465025186538696e-01" purity="2.4181844294071198e-01" nType="-99"/>
          <Node pos="r" depth="2" NCoef="0" IVar="-1" Cut="0.0000000000000000e+00" cType="1" res="-3.6665677907876670e-04" rms="4.8767623305320740e-01" purity="4.8817095160484314e-01" nType="-99"/>
        </Node>
      </Node>
    </BinaryTree>
    <BinaryTree type="DecisionTree" boostWeight="1.0000000000000000e+00" itree="47">
      <Node pos="s" depth="0" NCoef="0" IVar="2" Cut="9.4426757097244263e-01" cType="1" res="-9.5920749008655548e-03" rms="4.7354930639266968e-01" purity="4.9114009737968445e-01" nType="0">
        <Node pos="l" depth="1" NCoef="0" IVar="0" Cut="1.3114296197891235e+00" cType="1" res="-7.5021207332611084e-02" rms="4.7074106335639954e-01" purity="3.8164535164833069e-01" nType="0">
          <Node pos="l" depth="2" NCoef="0" IVar="-1" Cut="0.0000000000000000e+00" cType="1" res="-9.6021679928526282e-04" rms="4.8891225457191467e-01" purity="4.4596096873283386e-01" nType="-99"/>
          <Node pos="r" depth="2" NCoef="0" IVar="-1" Cut="0.0000000000000000e+00" cType="1" res="-5.9098503552377224e-03" rms="3.8910198211669922e-01" purity="1.9167166948318481e-01" nType="-99"/>
        </Node>
        <Node pos="r" depth="1" NCoef="0" IVar="8" Cut="2.3239455223083496e+00" cType="1" res="9.1534562408924103e-02" rms="4.5989602804183960e-01" purity="6.6037410497665405e-01" nType="0">
          <Node pos="l" depth="2" NCoef="0" IVar="-1" Cut="0.0000000000000000e+00" cType="1" res="4.5449305325746536e-03" rms="4.3747198581695557e-01" purity="7.3750817775726318e-01" nType="-99"/>
          <Node pos="r" depth="2" NCoef="0" IVar="-1" Cut="0.0000000000000000e+00" cType="1" res="-1.7173929372802377e-03" rms="4.8781555891036987e-01" purity="4.4686949253082275e-01" nType="-99"/>
        </Node>
      </Node>
    </BinaryTree>
    <BinaryTree type="DecisionTree" boostWeight="1.0000000000000000e+00" itree="48">
      <Node pos="s" depth="0" NCoef="0" IVar="2" Cut="9.2992985248565674e-01" cType="1" res="-3.2157695386558771e-03" rms="4.7203269600868225e-01" purity="4.9812653660774231e-01" nType="0">
        <Node pos="l" depth="1" NCoef="0" IVar="0" Cut="1.1370983123779297e+00" cType="1" res="-9.6095740795135498e-02" rms="4.6202671527862549e-01" purity="3.4041580557823181e-01" nType="0">
          <Node pos="l" depth="2" NCoef="0" IVar="-1" Cut="0.0000000000000000e+00" cType="1" res="-1.0396263096481562e-03" rms="4.9386247992515564e-01" purity="4.3613925576210022e-01" nType="-99"/>
          <Node pos="r" depth="2" NCoef="0" IVar="-1" Cut="0.0000000000000000e+00" cType="1" res="-5.4022595286369324e-03" rms="3.9570701122283936e-01" purity="1.9902962446212769e-01" nType="-99"/>
        </Node>
        <Node pos="r" depth="1" NCoef="0" IVar="8" Cut="2.4734439849853516e+00" cType="1" res="6.7504584789276123e-02" rms="4.6729147434234619e-01" purity="6.1821007728576660e-01" nType="0">
          <Node pos="l" depth="2" NCoef="0" IVar="-1" Cut="0.0000000000000000e+00" cType="1" res="3.2552063930779696e-03" rms="4.5883676409721375e-01" purity="6.7679035663604736e-01" nType="-99"/>
          <Node pos="r" depth="2" NCoef="0" IVar="-1" Cut="0.0000000000000000e+00" cType="1" res="-4.1758632287383080e-03" rms="4.5914831757545471e-01" purity="3.1537210941314697e-01" nType="-99"/>
        </Node>
      </Node>
    </BinaryTree>
    <BinaryTree type="DecisionTree" boostWeight="1.0000000000000000e+00" itree="49">
      <Node pos="s" depth="0" NCoef="0" IVar="0" Cut="9.4263035058975220e-01" cType="1" res="-7.5843264348804951e-03" rms="4.7238817811012268e-01" purity="4.9567088484764099e-01" nType="0">
        <Node pos="l" depth="1" NCoef="0" IVar="2" Cut="9.2164653539657593e-01" cType="1" res="7.6550707221031189e-02" rms="4.6885874867439270e-01" purity="6.3017046451568604e-01" nType="0">
          <Node pos="l" depth="2" NCoef="0" IVar="-1" Cut="0.0000000000000000e+00" cType="1" res="-1.1010109446942806e-03" rms="4.9542191624641418e-01" purity="4.3425017595291138e-01" nType="-99"/>
          <Node pos="r" depth="2" NCoef="0" IVar="-1" Cut="0.0000000000000000e+00" cType="1" res="3.8553250487893820e-03" rms="4.4743376970291138e-01" purity="7.1444213390350342e-01" nType="-99"/>
        </Node>
        <Node pos="r" depth="1" NCoef="0" IVar="2" Cut="9.5514500141143799e-01" cType="1" res="-8.2480587065219879e-02" rms="4.6281424164772034e-01" purity="3.7594053149223328e-01" nType="0">
          <Node pos="l" depth="2" NCoef="0" IVar="-1" Cut="0.0000000000000000e+00" cType="1" res="-3.7388112396001816e-03" rms="4.4732001423835754e-01" purity="3.0659759044647217e-01" nType="-99"/>
          <Node pos="r" depth="2" NCoef="0" IVar="-1" Cut="0.0000000000000000e+00" cType="1" res="1.8923797179013491e-03" rms="4.8249030113220215e-01" purity="5.9776580333709717e-01" nType="-99"/>
        </Node>
      </Node>
    </BinaryTree>
    <BinaryTree type="DecisionTree" boostWeight="1.0000000000000000e+00" itree="50">
      <Node pos="s" depth="0" NCoef="0" IVar="0" Cut="1.3449239730834961e+00" cType="1" res="-6.6520326072350144e-04" rms="4.7393152117729187e-01" purity="5.0036317110061646e-01" nType="0">
        <Node pos="l" depth="1" NCoef="0" IVar="2" Cut="9.5509696006774902e-01" cType="1" res="3.7173353135585785e-02" rms="4.7791445255279541e-01" purity="5.6195902824401855e-01" nType="0">
          <Node pos="l" depth="2" NCoef="0" IVar="-1" Cut="0.0000000000000000e+00" cType="1" res="-1.7508896416984499e-04" rms="4.8767828941345215e-01" purity="4.9137350916862488e-01" nType="-99"/>
          <Node pos="r" depth="2" NCoef="0" IVar="-1" Cut="0.0000000000000000e+00" cType="1" res="4.8755807802081108e-03" rms="4.3099001049995422e-01" purity="7.4716329574584961e-01" nType="-99"/>
        </Node>
        <Node pos="r" depth="1" NCoef="0" IVar="8" Cut="2.4825682640075684e+00" cType="1" res="-1.3752315938472748e-01" rms="4.3242383003234863e-01" purity="2.7757778763771057e-01" nType="0">
          <Node pos="l" depth="2" NCoef="0" IVar="-1" Cut="0.0000000000000000e+00" cType="1" res="-1.6217962838709354e-03" rms="4.6786469221115112e-01" purity="3.8101035356521606e-01" nType="-99"/>
          <Node pos="r" depth="2" NCoef="0" IVar="-1" Cut="0.0000000000000000e+00" cType="1" res="-6.0065179131925106e-03" rms="3.9694064855575562e-01" purity="2.0770390331745148e-01" nType="-99"/>
        </Node>
      </Node>
    </BinaryTree>
    <BinaryTree type="DecisionTree" boostWeight="1.0000000000000000e+00" itree="51">
      <Node pos="s" depth="0" NCoef="0" IVar="8" Cut="2.4076704978942871e+00" cType="1" res="7.3461071588099003e-04" rms="4.7190052270889282e-01" purity="5.0313979387283325e-01" nType="0">
        <Node pos="l" depth="1" NCoef="0" IVar="2" Cut="9.5990240573883057e-01" cType="1" res="4.1830897331237793e-02" rms="4.7499153017997742e-01" purity="5.6903231143951416e-01" nType="0">
          <Node pos="l" depth="2" NCoef="0" IVar="-1" Cut="0.0000000000000000e+00" cType="1" res="2.2275782612268813e-05" rms="4.8483231663703918e-01" purity="5.0580561161041260e-01" nType="-99"/>
          <Node pos="r" depth="2" NCoef="0" IVar="-1" Cut="0.0000000000000000e+00" cType="1" res="5.8225169777870178e-03" rms="4.1233950853347778e-01" purity="7.7914220094680786e-01" nType="-99"/>
        </Node>
        <Node pos="r" depth="1" NCoef="0" IVar="0" Cut="1.5687634944915771e+00" cType="1" res="-1.4117288589477539e-01" rms="4.3198838829994202e-01" purity="2.7560967206954956e-01" nType="0">
          <Node pos="l" depth="2" NCoef="0" IVar="-1" Cut="0.0000000000000000e+00" cType="1" res="-2.6868821587413549e-03" rms="4.5952311158180237e-01" purity="3.4053537249565125e-01" nType="-99"/>
          <Node pos="r" depth="2" NCoef="0" IVar="-1" Cut="0.0000000000000000e+00" cType="1" res="-7.4433237314224243e-03" rms="3.5669213533401489e-01" purity="1.5642860531806946e-01" nType="-99"/>
        </Node>
      </Node>
    </BinaryTree>
    <BinaryTree type="DecisionTree" boostWeight="1.0000000000000000e+00" itree="52">
      <Node pos="s" depth="0" NCoef="0" IVar="8" Cut="2.3490259647369385e+00" cType="1" res="-2.1774228662252426e-04" rms="4.7155106067657471e-01" purity="5.0283366441726685e-01" nType="0">
        <Node pos="l" depth="1" NCoef="0" IVar="2" Cut="9.2150712013244629e-01" cType="1" res="4.6063154935836792e-02" rms="4.7374993562698364e-01" purity="5.7688409090042114e-01" nType="0">
          <Node pos="l" depth="2" NCoef="0" IVar="-1" Cut="0.0000000000000000e+00" cType="1" res="-1.7841754015535116e-03" rms="4.8021632432937622e-01" purity="3.8215002417564392e-01" nType="-99"/>
          <Node pos="r" depth="2" NCoef="0" IVar="-1" Cut="0.0000000000000000e+00" cType="1" res="2.9366353992372751e-03" rms="4.6184578537940979e-01" purity="6.6592013835906982e-01" nType="-99"/>
        </Node>
        <Node pos="r" depth="1" NCoef="0" IVar="0" Cut="1.6267743110656738e+00" cType="1" res="-1.2445659935474396e-01" rms="4.4226163625717163e-01" purity="3.0404874682426453e-01" nType="0">
          <Node pos="l" depth="2" NCoef="0" IVar="-1" Cut="0.0000000000000000e+00" cType="1" res="-2.4432134814560413e-03" rms="4.6403256058692932e-01" purity="3.5974520444869995e-01" nType="-99"/>
          <Node pos="r" depth="2" NCoef="0" IVar="-1" Cut="0.0000000000000000e+00" cType="1" res="-7.9661430791020393e-03" rms="3.3932358026504517e-01" purity="1.3926793634891510e-01" nType="-99"/>
        </Node>
      </Node>
    </BinaryTree>
    <BinaryTree type="DecisionTree" boostWeight="1.0000000000000000e+00" itree="53">
      <Node pos="s" depth="0" NCoef="0" IVar="2" Cut="9.3595969676971436e-01" cType="1" res="-4.3938024900853634e-03" rms="4.7190183401107788e-01" purity="4.9838307499885559e-01" nType="0">
        <Node pos="l" depth="1" NCoef="0" IVar="2" Cut="9.0048176050186157e-01" cType="1" res="-8.4044612944126129e-02" rms="4.6556410193443298e-01" purity="3.5369122028350830e-01" nType="0">
          <Node pos="l" depth="2" NCoef="0" IVar="-1" Cut="0.0000000000000000e+00" cType="1" res="-4.8706117086112499e-03" rms="4.1866189241409302e-01" purity="2.4073699116706848e-01" nType="-99"/>
          <Node pos="r" depth="2" NCoef="0" IVar="-1" Cut="0.0000000000000000e+00" cType="1" res="-1.2422731379047036e-03" rms="4.7876942157745361e-01" purity="4.0237918496131897e-01" nType="-99"/>
        </Node>
        <Node pos="r" depth="1" NCoef="0" IVar="8" Cut="2.4933359622955322e+00" cType="1" res="7.1359142661094666e-02" rms="4.6537050604820251e-01" purity="6.3599419593811035e-01" nType="0">
          <Node pos="l" depth="2" NCoef="0" IVar="-1" Cut="0.0000000000000000e+00" cType="1" res="3.0487847980111837e-03" rms="4.5859926939010620e-01" purity="6.8175661563873291e-01" nType="-99"/>
          <Node pos="r" depth="2" NCoef="0" IVar="-1" Cut="0.0000000000000000e+00" cType="1" res="-3.0587203800678253e-03" rms="4.7168982028961182e-01" purity="3.4910511970520020e-01" nType="-99"/>
        </Node>
      </Node>
    </BinaryTree>
    <BinaryTree type="DecisionTree" boostWeight="1.0000000000000000e+00" itree="54">
      <Node pos="s" depth="0" NCoef="0" IVar="2" Cut="9.1845595836639404e-01" cType="1" res="-7.8832916915416718e-03" rms="4.7143402695655823e-01" purity="4.9417191743850708e-01" nType="0">
        <Node pos="l" depth="1" NCoef="0" IVar="0" Cut="1.0008448362350464e+00" cType="1" res="-1.2419848144054413e-01" rms="4.4591125845909119e-01" purity="2.9692995548248291e-01" nType="0">
          <Node pos="l" depth="2" NCoef="0" IVar="-1" Cut="0.0000000000000000e+00" cType="1" res="-1.4313688734546304e-03" rms="4.9227312207221985e-01" purity="4.1450241208076477e-01" nType="-99"/>
          <Node pos="r" depth="2" NCoef="0" IVar="-1" Cut="0.0000000000000000e+00" cType="1" res="-5.5379946716129780e-03" rms="3.8805469870567322e-01" purity="1.8911154568195343e-01" nType="-99"/>
        </Node>
        <Node pos="r" depth="1" NCoef="0" IVar="0" Cut="1.0715396404266357e+00" cType="1" res="4.1396651417016983e-02" rms="4.7329601645469666e-01" purity="5.7773858308792114e-01" nType="0">
          <Node pos="l" depth="2" NCoef="0" IVar="-1" Cut="0.0000000000000000e+00" cType="1" res="3.0171032994985580e-03" rms="4.5956185460090637e-01" purity="6.8263840675354004e-01" nType="-99"/>
          <Node pos="r" depth="2" NCoef="0" IVar="-1" Cut="0.0000000000000000e+00" cType="1" res="-1.4061836991459131e-03" rms="4.7992289066314697e-01" purity="4.2139157652854919e-01" nType="-99"/>
        </Node>
      </Node>
    </BinaryTree>
    <BinaryTree type="DecisionTree" boostWeight="1.0000000000000000e+00" itree="55">
      <Node pos="s" depth="0" NCoef="0" IVar="5" Cut="4.3715664672851562e+02" cType="1" res="-1.0708479676395655e-03" rms="4.7334036231040955e-01" purity="4.9998340010643005e-01" nType="0">
        <Node pos="l" depth="1" NCoef="0" IVar="2" Cut="9.4452357292175293e-01" cType="1" res="-1.2084314972162247e-01" rms="4.5173105597496033e-01" purity="3.5890468955039978e-01" nType="0">
          <Node pos="l" depth="2" NCoef="0" IVar="-1" Cut="0.0000000000000000e+00" cType="1" res="-5.0156614743173122e-03" rms="4.2604047060012817e-01" purity="2.6060199737548828e-01" nType="-99"/>
          <Node pos="r" depth="2" NCoef="0" IVar="-1" Cut="0.0000000000000000e+00" cType="1" res="-2.5029655080288649e-04" rms="4.7994890809059143e-01" purity="5.5649673938751221e-01" nType="-99"/>
        </Node>
        <Node pos="r" depth="1" NCoef="0" IVar="8" Cut="2.2879447937011719e+00" cType="1" res="3.9306793361902237e-02" rms="4.7362825274467468e-01" purity="5.4754388332366943e-01" nType="0">
          <Node pos="l" depth="2" NCoef="0" IVar="-1" Cut="0.0000000000000000e+00" cType="1" res="2.3905895650386810e-03" rms="4.7049996256828308e-01" purity="6.1816358566284180e-01" nType="-99"/>
          <Node pos="r" depth="2" NCoef="0" IVar="-1" Cut="0.0000000000000000e+00" cType="1" res="-1.9250356126576662e-03" rms="4.6557393670082092e-01" purity="3.7746769189834595e-01" nType="-99"/>
        </Node>
      </Node>
    </BinaryTree>
    <BinaryTree type="DecisionTree" boostWeight="1.0000000000000000e+00" itree="56">
      <Node pos="s" depth="0" NCoef="0" IVar="2" Cut="9.1907930374145508e-01" cType="1" res="-6.3607341144233942e-04" rms="4.7106823325157166e-01" purity="5.0113087892532349e-01" nType="0">
        <Node pos="l" depth="1" NCoef="0" IVar="5" Cut="5.1951495361328125e+02" cType="1" res="-1.1004856228828430e-01" rms="4.5082321763038635e-01" purity="3.0623871088027954e-01" nType="0">
          <Node pos="l" depth="2" NCoef="0" IVar="-1" Cut="0.0000000000000000e+00" cType="1" res="-4.5283753424882889e-03" rms="4.2255595326423645e-01" purity="2.4794055521488190e-01" nType="-99"/>
          <Node pos="r" depth="2" NCoef="0" IVar="-1" Cut="0.0000000000000000e+00" cType="1" res="-1.3596984790638089e-03" rms="4.7508746385574341e-01" purity="3.7633842229843140e-01" nType="-99"/>
        </Node>
        <Node pos="r" depth="1" NCoef="0" IVar="8" Cut="2.6109936237335205e+00" cType="1" res="4.8508461564779282e-02" rms="4.7169503569602966e-01" purity="5.8867013454437256e-01" nType="0">
          <Node pos="l" depth="2" NCoef="0" IVar="-1" Cut="0.0000000000000000e+00" cType="1" res="2.1790198516100645e-03" rms="4.7046235203742981e-01" purity="6.2535721063613892e-01" nType="-99"/>
          <Node pos="r" depth="2" NCoef="0" IVar="-1" Cut="0.0000000000000000e+00" cType="1" res="-5.0229486078023911e-03" rms="4.3113407492637634e-01" purity="2.5501197576522827e-01" nType="-99"/>
        </Node>
      </Node>
    </BinaryTree>
    <BinaryTree type="DecisionTree" boostWeight="1.0000000000000000e+00" itree="57">
      <Node pos="s" depth="0" NCoef="0" IVar="0" Cut="1.0052028894424438e+00" cType="1" res="-1.1358808260411024e-03" rms="4.7056335210800171e-01" purity="5.0096803903579712e-01" nType="0">
        <Node pos="l" depth="1" NCoef="0" IVar="2" Cut="9.2410629987716675e-01" cType="1" res="6.8470850586891174e-02" rms="4.6871745586395264e-01" purity="6.2413311004638672e-01" nType="0">
          <Node pos="l" depth="2" NCoef="0" IVar="-1" Cut="0.0000000000000000e+00" cType="1" res="-8.5174222476780415e-04" rms="4.9502721428871155e-01" purity="4.4077882170677185e-01" nType="-99"/>
          <Node pos="r" depth="2" NCoef="0" IVar="-1" Cut="0.0000000000000000e+00" cType="1" res="3.6608923692256212e-03" rms="4.4637268781661987e-01" purity="7.1646869182586670e-01" nType="-99"/>
        </Node>
        <Node pos="r" depth="1" NCoef="0" IVar="2" Cut="9.6326029300689697e-01" cType="1" res="-7.9432874917984009e-02" rms="4.6021702885627747e-01" purity="3.6242601275444031e-01" nType="0">
          <Node pos="l" depth="2" NCoef="0" IVar="-1" Cut="0.0000000000000000e+00" cType="1" res="-3.3126177731901407e-03" rms="4.5047903060913086e-01" purity="3.1537023186683655e-01" nType="-99"/>
          <Node pos="r" depth="2" NCoef="0" IVar="-1" Cut="0.0000000000000000e+00" cType="1" res="2.5128796696662903e-03" rms="4.7799098491668701e-01" purity="6.0507935285568237e-01" nType="-99"/>
        </Node>
      </Node>
    </BinaryTree>
    <BinaryTree type="DecisionTree" boostWeight="1.0000000000000000e+00" itree="58">
      <Node pos="s" depth="0" NCoef="0" IVar="2" Cut="9.4921118021011353e-01" cType="1" res="5.6430499535053968e-04" rms="4.7032320499420166e-01" purity="5.0098890066146851e-01" nType="0">
        <Node pos="l" depth="1" NCoef="0" IVar="0" Cut="1.1487312316894531e+00" cType="1" res="-5.0326082855463028e-02" rms="4.7182327508926392e-01" purity="4.0925151109695435e-01" nType="0">
          <Node pos="l" depth="2" NCoef="0" IVar="-1" Cut="0.0000000000000000e+00" cType="1" res="8.3186365372966975e-05" rms="4.9201944470405579e-01" purity="5.0890213251113892e-01" nType="-99"/>
          <Node pos="r" depth="2" NCoef="0" IVar="-1" Cut="0.0000000000000000e+00" cType="1" res="-4.0111239068210125e-03" rms="4.2525100708007812e-01" purity="2.5363853573799133e-01" nType="-99"/>
        </Node>
        <Node pos="r" depth="1" NCoef="0" IVar="0" Cut="1.3793751001358032e+00" cType="1" res="1.0255227237939835e-01" rms="4.5031082630157471e-01" purity="6.8483722209930420e-01" nType="0">
          <Node pos="l" depth="2" NCoef="0" IVar="-1" Cut="0.0000000000000000e+00" cType="1" res="4.2361095547676086e-03" rms="4.3726563453674316e-01" purity="7.3354059457778931e-01" nType="-99"/>
          <Node pos="r" depth="2" NCoef="0" IVar="-1" Cut="0.0000000000000000e+00" cType="1" res="-1.0733150411397219e-03" rms="4.8735129833221436e-01" purity="4.4414475560188293e-01" nType="-99"/>
        </Node>
      </Node>
    </BinaryTree>
    <BinaryTree type="DecisionTree" boostWeight="1.0000000000000000e+00" itree="59">
      <Node pos="s" depth="0" NCoef="0" IVar="2" Cut="9.4951575994491577e-01" cType="1" res="-7.8850600402802229e-04" rms="4.6897625923156738e-01" purity="5.0123327970504761e-01" nType="0">
        <Node pos="l" depth="1" NCoef="0" IVar="2" Cut="9.0666240453720093e-01" cType="1" res="-5.5761568248271942e-02" rms="4.7023597359657288e-01" purity="4.0556904673576355e-01" nType="0">
          <Node pos="l" depth="2" NCoef="0" IVar="-1" Cut="0.0000000000000000e+00" cType="1" res="-4.4776941649615765e-03" rms="4.2347431182861328e-01" purity="2.5191032886505127e-01" nType="-99"/>
          <Node pos="r" depth="2" NCoef="0" IVar="-1" Cut="0.0000000000000000e+00" cType="1" res="-3.8593317731283605e-04" rms="4.8150163888931274e-01" purity="4.6791931986808777e-01" nType="-99"/>
        </Node>
        <Node pos="r" depth="1" NCoef="0" IVar="0" Cut="1.3729298114776611e+00" cType="1" res="1.0917238146066666e-01" rms="4.4658243656158447e-01" purity="6.9258731603622437e-01" nType="0">
          <Node pos="l" depth="2" NCoef="0" IVar="-1" Cut="0.0000000000000000e+00" cType="1" res="4.5704864896833897e-03" rms="4.3047386407852173e-01" purity="7.4784964323043823e-01" nType="-99"/>
          <Node pos="r" depth="2" NCoef="0" IVar="-1" Cut="0.0000000000000000e+00" cType="1" res="-1.0600917739793658e-03" rms="4.8792037367820740e-01" purity="4.4343140721321106e-01" nType="-99"/>
        </Node>
      </Node>
    </BinaryTree>
    <BinaryTree type="DecisionTree" boostWeight="1.0000000000000000e+00" itree="60">
      <Node pos="s" depth="0" NCoef="0" IVar="2" Cut="9.4601464271545410e-01" cType="1" res="-1.7624055035412312e-03" rms="4.7158399224281311e-01" purity="5.0107479095458984e-01" nType="0">
        <Node pos="l" depth="1" NCoef="0" IVar="8" Cut="2.3004634380340576e+00" cType="1" res="-5.4260827600955963e-02" rms="4.7272968292236328e-01" purity="3.9889582991600037e-01" nType="0">
          <Node pos="l" depth="2" NCoef="0" IVar="-1" Cut="0.0000000000000000e+00" cType="1" res="-2.9309274395927787e-04" rms="4.8903527855873108e-01" purity="4.7400224208831787e-01" nType="-99"/>
          <Node pos="r" depth="2" NCoef="0" IVar="-1" Cut="0.0000000000000000e+00" cType="1" res="-4.1616461239755154e-03" rms="4.2705839872360229e-01" purity="2.5385096669197083e-01" nType="-99"/>
        </Node>
        <Node pos="r" depth="1" NCoef="0" IVar="0" Cut="1.1545393466949463e+00" cType="1" res="8.2258187234401703e-02" rms="4.5737242698669434e-01" purity="6.6460615396499634e-01" nType="0">
          <Node pos="l" depth="2" NCoef="0" IVar="-1" Cut="0.0000000000000000e+00" cType="1" res="4.0155863389372826e-03" rms="4.3462631106376648e-01" purity="7.4390590190887451e-01" nType="-99"/>
          <Node pos="r" depth="2" NCoef="0" IVar="-1" Cut="0.0000000000000000e+00" cType="1" res="-3.0613256967626512e-04" rms="4.9110111594200134e-01" purity="4.9110969901084900e-01" nType="-99"/>
        </Node>
      </Node>
    </BinaryTree>
    <BinaryTree type="DecisionTree" boostWeight="1.0000000000000000e+00" itree="61">
      <Node pos="s" depth="0" NCoef="0" IVar="2" Cut="9.4653511047363281e-01" cType="1" res="-6.7853988148272038e-03" rms="4.7079271078109741e-01" purity="4.9446472525596619e-01" nType="0">
        <Node pos="l" depth="1" NCoef="0" IVar="0" Cut="1.2786540985107422e+00" cType="1" res="-5.5453151464462280e-02" rms="4.7087895870208740e-01" purity="3.9710345864295959e-01" nType="0">
          <Node pos="l" depth="2" NCoef="0" IVar="-1" Cut="0.0000000000000000e+00" cType="1" res="-4.8340647481381893e-04" rms="4.8995220661163330e-01" purity="4.6873083710670471e-01" nType="-99"/>
          <Node pos="r" depth="2" NCoef="0" IVar="-1" Cut="0.0000000000000000e+00" cType="1" res="-4.6326383017003536e-03" rms="4.0428325533866882e-01" purity="2.1849918365478516e-01" nType="-99"/>
        </Node>
        <Node pos="r" depth="1" NCoef="0" IVar="0" Cut="1.2928822040557861e+00" cType="1" res="7.8360490500926971e-02" rms="4.5837756991386414e-01" purity="6.6480153799057007e-01" nType="0">
          <Node pos="l" depth="2" NCoef="0" IVar="-1" Cut="0.0000000000000000e+00" cType="1" res="3.4923814237117767e-03" rms="4.4521036744117737e-01" purity="7.2034251689910889e-01" nType="-99"/>
          <Node pos="r" depth="2" NCoef="0" IVar="-1" Cut="0.0000000000000000e+00" cType="1" res="-1.2614870211109519e-03" rms="4.8947373032569885e-01" purity="4.4449317455291748e-01" nType="-99"/>
        </Node>
      </Node>
    </BinaryTree>
    <BinaryTree type="DecisionTree" boostWeight="1.0000000000000000e+00" itree="62">
      <Node pos="s" depth="0" NCoef="0" IVar="2" Cut="9.3421816825866699e-01" cType="1" res="-4.2831683531403542e-03" rms="4.7016996145248413e-01" purity="5.0001817941665649e-01" nType="0">
        <Node pos="l" depth="1" NCoef="0" IVar="5" Cut="4.6785916137695312e+02" cType="1" res="-8.0862335860729218e-02" rms="4.6319058537483215e-01" purity="3.4971693158149719e-01" nType="0">
          <Node pos="l" depth="2" NCoef="0" IVar="-1" Cut="0.0000000000000000e+00" cType="1" res="-4.5359800569713116e-03" rms="4.2501416802406311e-01" purity="2.5900411605834961e-01" nType="-99"/>
          <Node pos="r" depth="2" NCoef="0" IVar="-1" Cut="0.0000000000000000e+00" cType="1" res="-1.0121666127815843e-03" rms="4.7786745429039001e-01" purity="4.0166765451431274e-01" nType="-99"/>
